tree
version=v4
num_class=1
num_tree_per_iteration=1
label_index=0
max_feature_idx=8
objective=binary sigmoid:1
feature_names=Column_0 Column_1 Column_2 Column_3 Column_4 Column_5 Column_6 Column_7 Column_8
feature_infos=[-15.100427627563477:7.7828998565673828] [1.4426950408889634:2.8853900817779268] [0:3] none [0.17363999783992767:100834760] none none [0:1] [0:1]
tree_sizes=1893 2717 2645 3844 2425 2652 3732 3381 3423 2461 3334 2153 3319 3294 3324 1925 2242 3097 1716 2027 2465 1721 3318 2677 1829 1828 1615 2905 1837 1722 2383 1720 1408 1935 2466 1934 2781 1415 2478 1823 1517 2037 1735 1829 1938 1736 2042 1506 1932 1514 1940 1617 1408 1951 1615 2267 1633 1724 1630 1618 2030 1627 1728 2174 1948 1826 985 1418 1308 1417 1645 1293 1201 1088 2050 2575 2376 1641 1831 2474 2289 1644 2160 1201 2559 1845 2887 2465 2348 1419 1319 1840 2049 992 2157 1753 2810 2770 1310 2378 2358 1844 3138 3558 1629 1952 1315 1955 2499 1643 2166 2165 2490 3942 2483 2921 2587 2363 2503 1505 2692 2498 2277 3310 1969 1722 2283 1201 2892 2461 2916 2505 3320 1747 1937 3003 2159 2173 2709 2579 2565 3363 2577 2481 3104 2289 2582 2987 2290 3025 1714 3102 2152 2060 2926 3773 3952 2052 2593 2169 2264 3355 2072 2693 3633 1312 2579 3714 1634 2576 2157 2472 3568 1629 2792 2152 1966 1523 3808 2684 1529 2693 2140 1855 3556 2684 2149 1947 1647 2041 1949 1420 1826 3707 3126 2805 2041 2149 2374 2409 2476 2721 3093 1532 1835 1197 1625 2550 2056 1941 1631 2673 2051 3020 1624 2702 2049 1829 3688 2178 2376 2862 2069 2469 2145 3317 2704 1298 3553 3006 2486 2980 3786 1965 2715 3200 1952 2994 2899 2471 1627 2350 2656 1511 3313 2039 1506 3022 1944 3624 2072 1511 3748 2050 2769 2277 2040 1100 2382 2142 2686 3541 2896 2561 3642 1514 2876 2573 3018 2790 1963 1831 3351 2606 3097 2591 1401 2359 2067 2476 1746 2025 2047 2072 1093 2715 3316 3209 2163 3103 1738 4189 1934 3321 2261 2811 3353 2258 3422 2147 2711 2792 3128 2397 3003 2173 2904 2799 2472 1846 2795 2783 3979 2933 2472 3465 1949 1838 2082 1751 2683 2171 3325 2250 3330 3577 2677 2560 2584 3455 1303 1847 2803 2911 2584 1619 2274 2048 3416 2580 1089 1841 2527 3353 2886 3518 2355 3124 3126 2482 2800 3573 2788 2476 1529 1415 4169 2939 2262 2478 2593 3660 2817 3643 3317 2141 3101 2571 2530 3600 2598 2573 2796 3005 3311 2673 3684 1531 3529 3240 2046 2362 1841 2522 3194 2691 3979 1859 3113 4274 1731 2035 2489 1924 1941 2463 3422 2816 2581 1837 3864 2367 1633 1308 2483 3222 2804 3077 2259 1942 1946 1933 2766 3856 1626 2478 1515 2284 2156 1740 1522 2487 2061 2360 1844 2267 2052 2048 1646 1858 2693 3025 2472 1953 3324 2824 3389 2277 2894 2253 1923 2272 1950 1635 1946 2470 2914 1861 2468 2272 2720 2131 1976 2049 2483 3228 3513 2359 3349 2896 2910 2584 3224 1730 2366 2072 2701 2060 2952 3125 3337 3115 2579 3108 2069 4347 2045 2582 1522 3650 2361 2991 2045 3194 1947 2660 3329 4111 1625 2162 2278 3766 2471 3226 2808 2477 2040 2906 3374 3237 2594 2805 1090 3677 2797 2565 3135 2040 1615 3538 2674 2150 2915 3536 2699 2820 2578 2094 2605 4020 1620 2705 3450 3775 3147 1095 2484 2375 3016 1953 1111 1936 3450 2805 2801 2387 2803 3121 1965 1937 2050 2670 1745 2158 2298 1207 3670 3333 3643 1633 1536 889 2681 2912 2588 2604 3020 2046 3777 2173 3040 1832 1726 3123 1965 2388 3164 2796 3556 2168 3148 1425 2824 1406 1855 2841 2058 2182 3336 3419 2480 3774 2826 2197 2482 2469 3009 2832 2162 2085 1324 1952 2197 2901 2051 1845 2705 1327 2562 3457 3678 3442 3132 2602 1942 3178 1940 3560 2578 2162 1949 2402 2373 3247 2044 3021 4299 2705 1965 2603 3332 2469 1538 2064 2295 2692 2959 2803 2917 2834 2383 2378 2064 2359 2081 2706 3817 1751 3638 2710 1535 3571 2064 2938 2064 3751 2902 1639 2566 2821 2294 1545 3039 2403 2807 2720 1335 2052 3244 2916 2281 3432 3653 3641 3345 1640 3797 2815 3567 2295 1427 1759 2053 1971 3126 1884 3395 2721 3548 1753 3581 3243 3433 3687 3308 3960 2064 1206 1969 2607 2305 4642 2614 2586 2582 3228 2062 2262 4406 2086 2488 4226 2061 1963 2684 2074 3577 3573 3264 1742 1940 1531 2478 2209 1546 2820 1843 2488 2050 2619 2174 2268 2063 2915 3071 2071 1947 2297 3135 2604 2081 3880 3381 3470 2520 4074 2688 3600 2056 2497 2631 3484 3653 2736 1958 3357 2731 1960 2711 1962 2378 2924 2945 2413 2174 1544 2397 2168 2483 1516 2817 2731 1753 3654 2051 2505 1619 1313 2829 3310 2195 1953 2263 2597 1430 3024 1419 3802 2064 3010 3140 2630 2708 1959 4047 3567 2529 3353 2386 3797 3675 1739 3284 2740 2185 2932 3022 1640 2312 3779 2743 2079 3155 1860 1969 3975 2046 2198 1551 2690 3254 2939 2605 1848 3308 4111 2930 1526 2800 2392 2925 1332 1325 1759 2605 2610 2493 1659 2758 3583 4035 2629 2204 1889 2403 3068 2407 2499 2198 3380 2067 1333 1744 2492 2806 3490 1526 3212 1856 4248 1652 3190 2821 3363 2940 2935 1649 2702 1862 1652 1954 4015 2502 2907 4060 2394 3573 3161 2160 2479 2836 2401 2507 1746 2302 3350 2182 3375 4189 3354 3025 2493 1844 1969 3262 3794 2847 4681 1846 2290 1960 3567 1323 3377 2095 1426 1966 2418 2391 2614 1866 3045 2403 2287 1684 2067 2846 3503 3567 2078 2595 2183 2399 1977 3134 3585 2397 2825 2487 1656 3147 1958 2435 3391 2627 2740 1886 1869 3041 3784 1953 1861 2331 2637 1226 2391 1739 2507 2826 3234 3712 2093 3799 2202 3076 3387 1328 2074 1111 2491 2182 2306 1440 2287 2086 2840 2198 3771 3354 1763 3063 2198 3574 3361 3823 3915 3688 1860 3038 2497 2089 3491 3055 1330 1645 2297 2310 2292 2955 2741 3066 2607 3343 3161 1746 1743 3386 1654 3204 3335 2736 1991 1749 1864 2509 3259 1886 3813 2414 3515

Tree=0
num_leaves=17
num_cat=0
split_feature=8 0 7 7 4 2 2 0 0 0 0 2 2 0 4 0
split_gain=41132 43288.5 6974.52 3330.04 2888.88 2576.07 2020.89 2417.32 1901.77 1387.27 1432.3 720.499 579.309 435.919 383.127 1.42109e-14
threshold=1.0000000180025095e-35 0.15294045209884646 1.0000000180025095e-35 1.0000000180025095e-35 703.51806640625011 1.0000000180025095e-35 6.8196161983298095e-05 0.52007582783699047 0.314296305179596 0.099414180964231505 -0.4373744130134582 0.071241925406317838 0.02345830523251384 0.52007582783699047 10.232226371765138 0.14416962862014773
decision_type=2 2 2 2 2 2 2 2 2 2 2 2 2 2 2 2
left_child=1 2 5 4 6 15 7 -3 12 10 -7 -10 -6 -8 -11 -1
right_child=-2 3 -4 -5 8 9 13 -9 11 14 -12 -13 -14 -15 -16 -17
leaf_value=-3.6551141579293849 -1.7169606437365952 -3.2280931399736796 -1.7169606437365952 -1.7169606437365952 -3.6551141579293849 -3.0200309969378143 -2.13057713812981 -1.8542241713294771 -2.7861451574612941 -2.0811475867400722 -3.4999901783795964 -2.2138977961158544 -2.911404112903027 -1.8170309227748105 -2.8660739544464562 -3.6551141579293849
leaf_weight=104.27450873702765 83.397796154022217 8.6028196662664396 5.6862133741378775 24.640257954597473 5.5723141729831678 23.137661565095186 36.144594360142946 5.0996796563267699 10.56880282610655 2.3339662216603747 47.363210018724203 11.470263652503489 4.9395390525460243 15.98876368999481 4.6557637937366962 1.7800448052585114
leaf_count=4042 88 262 6 26 216 611 329 19 231 19 1693 123 120 48 109 69
internal_value=-2.70342 -2.96689 -3.44157 -2.23677 -2.36695 -3.495 -2.17644 -2.71678 -2.75226 -3.27586 -3.34247 -2.48832 -3.30564 -2.03442 -2.60398 -3.65511
internal_weight=395.656 312.258 189.231 123.027 98.3868 183.545 65.8359 13.7025 32.5509 77.4906 70.5009 22.0391 10.5119 52.1334 6.98973 106.055
internal_count=8011 7923 6549 1374 1348 6543 658 281 690 2432 2304 354 336 377 128 4111
is_linear=0
shrinkage=1


Tree=1
num_leaves=25
num_cat=0
split_feature=0 8 7 4 4 4 0 0 1 4 0 8 4 7 0 0 4 0 0 4 0 0 4 0
split_gain=1498.74 2383.59 456.868 415.351 566.312 768.013 230.996 431.338 221.81 190.025 125.995 359.439 343.501 90.2854 112.255 86.4625 215.679 52.3373 43.5504 89.4004 31.5851 65.1165 11.4347 0.0047228
threshold=0.077499240636825575 1.0000000180025095e-35 1.0000000180025095e-35 687.69885253906261 1320.7589111328127 1292.2380371093752 0.014124292880296709 0.023851655423641208 2.1640425613334453 3102.696655273438 0.17608883976936343 1.0000000180025095e-35 4776.3586425781259 1.0000000180025095e-35 0.47035907208919531 0.42608335614204412 50.642778396606452 -0.4373744130134582 0.2260541841387749 6587.0605468750009 0.54414263367652904 0.41379188001155859 85.882656097412124 0.15294045209884646
decision_type=2 2 2 2 2 2 2 2 2 2 2 2 2 2 2 2 2 2 2 2 2 2 2 2
left_child=1 2 3 6 5 -5 17 -8 13 -6 11 12 23 14 15 16 -2 -1 19 -12 21 -20 -16 -10
right_child=8 -3 -4 4 9 -7 7 -9 10 -11 18 -13 -14 -15 22 -17 -18 -19 20 -21 -22 -23 -24 -25
leaf_value=0.042700649615914084 0.44298716600155519 0.32837904764452275 0.32837904764452275 0.23312104056649421 0.12575283196256171 1.0345738335649612 0.91257239290762593 -0.051421876887782506 -0.052176350257139896 -0.051465038481580773 0.46072368199791447 0.32837904764452275 0.33372186599976855 0.32837904764452275 0.32498388308657444 0.51546822660549052 0.29051474298721186 -0.05138690414938879 0.32577972198821176 0.2965404589502349 0.34996445249707542 0.24506202457151796 0.3608619922870191 -0.054160074648305204
leaf_weight=19.412427943199873 84.731065846979618 241.83320188522339 18.967309951782227 25.793398343026642 41.389127794653177 3.3810075521469107 1.9052957296371449 2.968100193887949 10.526551347225906 23.838648568838835 17.795309443026781 56.90192985534668 9.434009771794079 85.35289478302002 38.378936387598515 19.312073197215796 31.93494713678956 61.94391630589962 139.06257175654173 15.524586889892815 76.593874789774418 30.458348460495472 52.705994565039873 4.1965157762169829
leaf_count=562 216 51 4 716 1219 28 33 111 329 893 82 12 89 18 47 35 310 2372 417 41 89 152 70 81
internal_value=0.294418 0.222825 0.0949363 0.0704235 0.142887 0.326001 -0.00890746 0.32546 0.341383 0.0609854 0.314659 0.259776 0.098183 0.37222 0.388699 0.417472 0.401251 -0.0289367 0.33058 0.384227 0.323317 0.311277 0.345745 -0.0527418
internal_weight=1114.34 441.432 199.599 180.632 94.4022 29.1744 86.2297 4.8734 672.91 65.2278 360.494 81.059 24.1571 312.416 227.063 135.978 116.666 81.3563 279.435 33.3199 246.115 169.521 91.0849 14.7231
internal_count=7977 5989 5938 5934 2856 744 3078 144 1988 2112 1292 511 499 696 678 561 526 2934 781 123 658 569 117 410
is_linear=0
shrinkage=0.05


Tree=2
num_leaves=24
num_cat=0
split_feature=0 8 2 2 7 2 0 2 0 2 4 4 4 2 8 7 0 4 0 0 0 4 4
split_gain=592.425 1144.65 1536.93 657.359 554.846 491.839 344.577 305.76 65.3001 45.6039 27.3711 76.071 95.5475 83.9838 160.199 73.8561 57.4485 36.6222 11.2198 0.00396838 0.00160056 0.000406028 0.00037004
threshold=0.18286757916212085 1.0000000180025095e-35 1.0000000180025095e-35 0.297169655659062 1.0000000180025095e-35 0.27316183460002263 -0.039798460900783532 0.014676934567709706 0.10357502847909929 0.81589537899074693 26094.627929687504 4190.2536621093759 1350.6569824218752 0.28730089251281193 1.0000000180025095e-35 1.0000000180025095e-35 0.58513519167900097 1005.7850952148439 0.35216529667377477 -0.4373744130134582 0.15294045209884646 355.45198059082037 653.47909545898449
decision_type=2 2 2 2 2 2 2 2 2 2 2 2 2 2 2 2 2 2 2 2 2 2 2
left_child=1 2 4 5 20 7 19 -4 -8 10 11 12 17 14 -13 -14 18 -2 -12 -5 22 -22 -1
right_child=9 -3 3 6 -6 -7 8 -9 -10 -11 16 13 15 -15 -16 -17 -18 -19 -20 -21 21 -23 -24
leaf_value=-0.051315486243002341 0.25184629602103742 0.25045795591421355 0.37280783470229278 -0.052828771374399078 0.25045795591421355 0.68000404973144468 0.23060286762164953 0.19577758133150766 0.090548954428737033 0.30939114575439908 0.20814643138964187 0.40112934730647515 0.11260387000523411 0.22927758814826849 0.25122344534117214 0.25080560264934448 0.25992904327156863 0.30173862445365873 0.14778739429617602 -0.051580210467566515 -0.052643415698267686 -0.051689402262732179 -0.051501587491374859
leaf_weight=51.204812685027719 394.30861797183752 375.65890502929688 38.690119091421366 11.182738516479732 17.609011173248291 7.5137464944273225 25.329993030056357 65.994868086650968 12.395471721887587 39.939961709082127 13.642639905214311 36.168583910912275 21.461722429841757 31.542285077273846 35.135543346405029 17.590681552886963 51.604231022298336 40.564178835600615 17.672295548021793 14.769038395956157 3.3505807332694522 1.6717530395835636 55.83986765705049
leaf_count=2096 587 64 449 227 3 31 169 1045 90 43 44 133 153 32 6 3 64 42 74 508 73 55 2036
internal_value=0.225195 0.192004 0.120139 0.216429 -0.0104562 0.289252 0.0881163 0.261206 0.184585 0.257511 0.25437 0.258231 0.249772 0.297211 0.327262 0.174855 0.227509 0.2565 0.174083 -0.0521182 -0.0514535 -0.0523259 -0.0514126
internal_weight=1380.84 681.211 305.552 175.876 129.676 112.199 63.6772 104.685 37.7255 699.631 659.691 576.772 473.925 102.846 71.3041 39.0524 82.9192 434.873 31.3149 25.9518 112.067 5.02233 107.045
internal_count=8027 6846 6782 2519 4263 1525 994 1494 259 1181 1138 956 785 171 139 156 182 629 118 735 4260 128 4132
is_linear=0
shrinkage=0.05


Tree=3
num_leaves=35
num_cat=0
split_feature=0 8 2 0 4 2 0 8 1 8 2 0 0 4 0 4 0 4 0 4 4 0 2 4 4 4 2 4 0 4 0 4 4 4
split_gain=301.41 263.691 778.782 259.904 213.254 209.728 273.357 119.554 94.0738 168.447 981.875 159.929 128.52 42.2558 117.65 43.2576 22.8729 62.8197 20.9397 12.9236 11.2382 0.00267578 0.000543368 0.000451105 0.000451544 0.000915129 0.000279266 0.000143621 7.36312e-05 6.2057e-05 3.06933e-05 1.83137e-05 1.02673e-12 3.62377e-13
threshold=-0.21411208808422086 1.0000000180025095e-35 1.0000000180025095e-35 -0.30013725161552424 63287956.000000007 0.013405437587744361 -0.33863098919391627 1.0000000180025095e-35 2.1640425613334453 1.0000000180025095e-35 0.0052081748605373361 -0.16662147641181943 0.30605763196945196 47.713346481323249 0.32465781271457678 985.55404663085949 0.314296305179596 6.4670848846435556 -0.61120009422302235 398.35736083984381 18.035215377807621 0.099414180964231505 0.00030337648530540166 687.69885253906261 1320.7589111328127 1244.8265380859377 0.3019227201700041 687.69885253906261 0.075312349945306792 3102.696655273438 -0.4373744130134582 473.86412048339849 558.06909179687511 536.87640380859386
decision_type=2 2 2 2 2 2 2 2 2 2 2 2 2 2 2 2 2 2 2 2 2 2 2 2 2 2 2 2 2 2 2 2 2 2
left_child=1 2 23 5 8 18 -7 21 13 10 12 -12 -10 16 19 -16 17 -2 -4 -15 -18 22 28 30 25 -25 27 -5 -6 -26 32 -28 -1 -32
right_child=4 -3 3 26 7 6 -8 -9 9 -11 11 -13 -14 14 15 -17 20 -19 -20 -21 -22 -23 -24 24 29 -27 31 -29 -30 -31 33 -33 -34 -35
leaf_value=-0.051281837380622697 0.30795220561702652 0.20604534414225079 0.42963069813791482 -0.05186193562114904 -0.051166422711707765 0.12159548188307917 0.38190795200204142 0.20604534414225079 -0.052154990313457252 0.20578263531640434 0.37901973803617911 0.19671973396303027 0.08761294723205186 0.14193448486088756 0.19815158248539819 0.24746067860458909 0.19808685856639136 0.22511023295645582 0.31915772458558472 0.081243451275331058 0.22886278957372663 -0.053704280216721169 -0.051985331236023093 -0.051550424398393274 -0.051392583139539719 -0.052792975160383705 -0.051362151142711025 -0.052356693354176198 -0.051545715387589841 -0.051166422711707786 -0.051166734682652343 -0.051593850478671405 -0.051281790312476511 -0.051166706256203558
leaf_weight=7.6037909388542193 30.06670007109642 81.015203475952148 7.5961785502731827 4.8275882489979249 7.1286308765411395 52.170891128480434 12.501789480447767 6.7512669563293448 46.830969939008355 506.77449893951416 12.656702492386101 243.26225740276277 25.350503541529179 26.816995890811086 119.07303343713284 70.999170437455177 56.21692805364728 95.794816881418228 9.8534649275243265 13.03514977917075 62.798769280314445 1.4675859659910191 3.3344604559242716 9.3348193168640137 16.872136592864994 1.7614254504442222 1.9621070995926859 2.1069973818957806 1.5594471618533132 3.6979772672057143 15.129878085106613 1.5085275545716283 1.3647355977445839 1.2255147136747826
leaf_count=312 117 12 40 141 320 753 104 1 1636 75 135 1098 192 109 107 50 67 132 92 134 36 29 93 320 640 40 76 50 55 166 679 51 56 55
internal_value=0.186179 0.133399 0.094036 0.183592 0.195328 0.213421 0.171916 0.0342753 0.197817 0.187711 0.159799 0.205736 -0.00306777 0.215587 0.200193 0.21657 0.23004 0.2449 0.367249 0.122083 0.214326 -0.0516888 -0.0514427 -0.0513648 -0.0514906 -0.0517477 -0.051829 -0.0520123 -0.0512345 -0.0513519 -0.0512075 -0.0514629 -0.0512818 -0.0511667
internal_weight=1560.45 230.533 149.518 92.5275 1329.92 82.1223 64.6727 20.2414 1309.68 834.875 328.1 255.919 72.1815 474.802 229.924 190.072 244.877 125.862 17.4496 39.8521 119.016 13.4901 12.0225 56.9903 31.6664 11.0962 10.4052 6.93459 8.68808 20.5701 25.3239 3.47063 8.96853 16.3554
internal_count=7973 3587 3575 1307 4386 989 857 498 3888 3136 3061 1233 1828 752 400 157 352 249 132 243 103 497 468 2268 1166 360 318 191 375 806 1102 127 368 734
is_linear=0
shrinkage=0.05


Tree=4
num_leaves=22
num_cat=0
split_feature=0 8 7 4 4 0 4 1 8 4 0 4 0 4 7 0 0 4 0 0 4
split_gain=186.997 527.697 235.752 154.333 252.862 157.66 36.4322 32.2344 54.0611 64.1582 245.645 132.042 36.909 88.9027 153.716 35.533 30.3058 6.88224 0.00164411 0.000348305 0.000125789
threshold=0.099414180964231505 1.0000000180025095e-35 1.0000000180025095e-35 3102.696655273438 3043.323608398438 -0.8563038408756255 2.5526006221771245 2.1640425613334453 1.0000000180025095e-35 7263.0754394531259 0.54414263367652904 5915.3037109375009 0.28883154690265661 43.533735275268562 1.0000000180025095e-35 0.369907096028328 0.24040304124355319 289.97795104980474 -0.4373744130134582 0.081087946891784682 4007.914916992188
decision_type=2 2 2 2 2 2 2 2 2 2 2 2 2 2 2 2 2 2 2 2 2
left_child=1 2 3 4 5 -1 16 12 9 11 -11 -9 13 -8 -15 -14 -2 -17 20 -20 -5
right_child=6 -3 -4 18 -6 -7 7 8 -10 10 -12 -13 15 14 -16 17 -18 -19 19 -21 -22
leaf_value=0.24479104951245959 0.16202956366812221 0.1770110916708505 0.19190815852682949 -0.052252471934471294 0.51814516729870608 0.060228219022015785 0.18066956797615855 0.14191985713478913 0.17677531098489396 -0.00010409643735215115 0.19213749336988503 0.24795773177872107 0.21490479212950145 -0.056060333315497951 0.18539712746365966 0.18415746080974404 0.062629401311338581 0.1663487800579313 -0.051444856341500401 -0.052178217760957449 -0.052713136816396958
leaf_weight=12.301924262195824 16.252423038706187 327.6072096824646 42.422084331512451 3.3581573572009829 3.2135798409581176 194.77047917805612 81.842979792505503 170.93400349467993 312.94959020614624 30.747708927839994 36.157711960375309 35.446170022711158 92.108457706868649 12.105315282940865 14.470832824707031 175.58570700883865 14.518044725060461 78.507274486124516 17.929389316588644 1.7797814514487971 2.6522412896156311
leaf_count=173 52 44 6 109 23 4906 103 754 42 265 60 35 77 190 2 105 60 79 709 48 71
internal_value=0.156196 0.133999 0.083389 0.0638827 0.0780232 0.0711929 0.16875 0.170335 0.162586 0.146338 0.103789 0.160132 0.180327 0.154869 0.0754143 0.188299 0.115131 0.178655 -0.0517318 -0.0515111 -0.0524558
internal_weight=1677.66 606.035 278.428 236.006 210.286 207.072 1071.63 1040.86 586.235 273.286 66.9054 206.38 454.621 108.419 26.5761 346.201 30.7705 254.093 25.7196 19.7092 6.0104
internal_count=7913 6089 6045 6039 5102 5079 1824 1712 1156 1114 325 789 556 295 192 261 112 184 937 757 180
is_linear=0
shrinkage=0.05


Tree=5
num_leaves=24
num_cat=0
split_feature=8 1 2 4 4 4 2 2 4 2 4 2 4 4 4 2 2 4 4 4 2 4 4
split_gain=178.972 452.347 1000.81 131.867 84.7894 204.734 79.8176 147.196 138.272 13.8301 102.264 30.8244 32.3274 14.1148 28.8252 42.6553 22.7378 0.0115621 0.00805136 0.00444773 0.000829515 0.000423973 0.000272556
threshold=1.0000000180025095e-35 2.1640425613334453 1.0000000180025095e-35 5.629091978073121 20387.666992187504 26094.627929687504 0.043583427325641438 0.12082467441317286 6587.0605468750009 0.0022343233574270774 6.2783505916595468 1.0000000180025095e-35 61.656770706176765 8.0961046218872088 27.292864799499515 0.052539333318041066 0.22287845050581376 63287956.000000007 4190.2536621093759 2.2572698593139653 0.21049591311240057 32.960754394531257 9320.3012695312518
decision_type=2 2 2 2 2 2 2 2 2 2 2 2 2 2 2 2 2 2 2 2 2 2 2
left_child=1 9 4 19 18 -6 8 -8 -5 10 -1 12 -12 16 -15 -16 -11 -7 21 -4 -21 -3 -20
right_child=-2 2 3 6 5 17 7 -9 -10 13 11 -13 -14 14 15 -17 -18 -19 22 20 -22 -23 -24
leaf_value=0.2658111829280278 0.15645117243694082 -0.05157537977002568 -0.059184754694909608 0.11448642276032224 0.36198581138782626 -0.054703975223190621 0.19622458896820455 0.12269075387801692 -0.055927534268716467 0.087729694337981598 0.088719084426932562 0.17721947273876559 0.15110658307336938 0.17474458972758902 0.079048951331243067 0.1528833489053999 0.15199525987947732 -0.051140995731389111 -0.053826729299585402 -0.056354506500516113 -0.057539127227657673 -0.051848427784084397 -0.053175802848453059
leaf_weight=22.485521525144577 742.87595176696777 17.302305661141872 3.5731444992125017 95.235154684633017 4.3875467702746382 4.0444818269461376 92.68790957890451 256.07975049316883 13.60350404307246 23.455916948616505 23.580267818644643 104.67034035548568 173.86899643950164 90.570139534771442 24.858672942966223 91.792489944025874 33.308603640645742 5.2100581936538219 4.2093941606581202 2.9384427256882191 2.9728235341608524 79.72045056335628 2.6023938786238432
leaf_count=71 93 688 44 720 14 77 411 1431 169 70 113 63 346 48 79 138 41 244 119 52 51 2901 81
internal_value=0.137248 0.125087 0.0939332 0.126743 -0.0365195 0.0806719 0.130568 0.142233 0.0931868 0.156029 0.16294 0.155284 0.143656 0.14753 0.153581 0.137149 0.12544 -0.0526981 -0.0519164 -0.0577921 -0.0569503 -0.0517997 -0.053578
internal_weight=1916.03 1173.16 584.567 467.091 117.477 13.6421 457.606 348.768 108.839 588.591 324.605 302.12 197.449 263.986 207.221 116.651 56.7645 9.25454 103.835 9.48441 5.91127 97.0228 6.81179
internal_count=8064 7971 7002 2878 4124 335 2731 1842 889 969 593 522 459 376 265 217 111 321 3789 147 103 3589 200
is_linear=0
shrinkage=0.05


Tree=6
num_leaves=34
num_cat=0
split_feature=0 0 4 0 8 2 0 0 4 4 2 1 2 0 4 0 4 2 2 2 1 2 2 4 4 4 4 4 4 0 0 4 4
split_gain=229.763 233.036 277.075 98.2239 222.851 462.896 330.227 179.86 150.628 31.473 21.9215 32.8466 31.2478 25.1384 24.6836 15.6724 9.38456 0.0406216 0.0181865 0.00622865 0.00463142 0.00264991 0.00171441 0.00051683 7.32812e-05 5.45964e-05 9.08401e-05 4.45959e-05 4.16221e-05 1.63234e-05 1.49161e-06 2.11742e-11 1.23901e-13
threshold=-0.5176434814929961 -0.77715790271759022 1350.6569824218752 0.27092568576335913 1.0000000180025095e-35 1.0000000180025095e-35 0.15614748746156695 -0.50747132301330555 1377.379577636719 5.629091978073121 0.00021699592803472488 2.1640425613334453 0.71527729762342562 0.47035907208919531 6587.0605468750009 0.17608883976936343 16575.581054687504 0.00021699592803472488 6.8196161983298095e-05 0.016181283960703712 2.1640425613334453 0.20729320117520003 0.297169655659062 669.39111328125011 1320.7589111328127 687.69885253906261 1320.7589111328127 1047.713317871094 3043.323608398438 -0.87883251905441273 -0.57184123992919911 65.43186187744142 460.07299804687506
decision_type=2 2 2 2 2 2 2 2 2 2 2 2 2 2 2 2 2 2 2 2 2 2 2 2 2 2 2 2 2 2 2 2 2
left_child=1 2 -1 4 5 6 20 -7 -9 -5 11 13 14 -11 -12 -8 -13 25 28 -19 -2 -20 23 -21 -24 31 27 -27 29 -4 -28 -3 -33
right_child=3 17 18 9 -6 7 15 8 -10 10 12 16 -14 -15 -16 -17 -18 19 21 22 -22 -23 24 -25 -26 26 30 -29 -30 -31 -32 32 -34
leaf_value=0.21947868613767929 -0.052369462699362095 -0.05122824287303978 -0.051604337827035079 0.098255293006224889 0.14094052410587976 0.34077833507453598 0.12253379452418195 0.13072032086109037 0.040819187703607172 0.1800603488096299 0.1345504604478088 0.11853380797340665 0.16331624733854558 0.1467116523227022 0.10073457155795887 0.072134538072729876 0.14431235098259276 -0.056449148740479994 -0.055803511714396507 -0.054288754717639109 -0.051242035492335573 -0.054047385155527018 -0.053883829707034737 -0.055031517342613634 -0.053555519601160277 -0.051484914186367831 -0.051307078905098391 -0.051852562788630464 -0.051205894603709258 -0.051400915513591522 -0.051359136364092228 -0.051228007492055375 -0.051227988066539179
leaf_weight=25.892492873594165 10.517202123999594 1.1934536788612593 2.6206694841384857 43.263350404798985 496.13009548187256 9.24373511970043 37.499735401943326 316.77691161632538 54.627304885536432 109.89851976186037 312.57738256826997 66.517419349402189 78.856353953480721 116.32139709591866 65.22492616251111 26.203671813011169 75.239630058407784 4.379853047430518 5.3625508509576303 3.7745622582733649 68.038128515705466 3.5836586989462376 3.393350262194871 6.1707917265594006 3.4053429551422596 1.9326835423707946 4.6136216241866324 1.4389648102223871 1.319631529971957 1.5811895225197097 1.9608688354492212 2.5970401782542472 1.1932181343436239
leaf_count=90 297 51 87 81 59 21 96 1601 636 75 312 104 40 45 170 158 42 44 61 52 2967 55 54 76 56 69 187 46 62 60 78 111 51
internal_value=0.124022 0.0390245 0.121551 0.127464 0.116936 0.0941603 0.017208 0.12292 0.117497 0.139825 0.142006 0.151087 0.134688 0.162913 0.128712 0.101803 0.132216 -0.0533595 -0.0537074 -0.0547704 -0.051393 -0.0551 -0.0543313 -0.0547496 -0.0537194 -0.0513631 -0.0514308 -0.0516418 -0.0514509 -0.0515278 -0.0513226 -0.0512281 -0.051228
internal_weight=1963.35 76.4139 40.3602 1886.94 1019.04 522.907 142.259 380.648 371.404 867.899 824.636 367.977 456.659 226.22 377.802 63.7034 141.757 36.0538 14.4677 21.1239 78.5553 8.94621 16.744 9.94535 6.79869 14.9299 9.94614 3.37165 5.52149 4.20186 6.57449 4.98371 3.79026
internal_count=7994 1290 415 6704 5835 5776 3518 2258 2237 869 788 266 522 120 482 254 146 875 325 282 3264 116 238 128 110 593 380 115 209 147 265 213 162
is_linear=0
shrinkage=0.05


Tree=7
num_leaves=31
num_cat=0
split_feature=0 8 2 4 2 4 7 2 4 7 0 4 4 8 4 4 4 4 0 0 4 2 0 4 4 0 4 4 4 4
split_gain=148.567 486.056 446.91 218.152 296.909 228.687 189.021 50.7868 21.1566 48.8311 110.483 24.3399 30.5733 37.3452 25.4206 20.9508 12.3833 36.2122 15.2676 9.13271 0.229026 0.0483652 0.0092009 0.00273601 0.000345577 0.00132953 0.000801831 1.44071e-05 7.07966e-06 1.27979e-09
threshold=0.077499240636825575 1.0000000180025095e-35 1.0000000180025095e-35 543.59439086914074 0.5134026373408721 703.51806640625011 1.0000000180025095e-35 0.41122749808493075 40381.740234375007 1.0000000180025095e-35 0.58513519167900097 4776.3586425781259 2137.155883789063 1.0000000180025095e-35 6587.0605468750009 4480.8854980468759 3.085932850837708 6.4670848846435556 0.27092568576335913 0.314296305179596 9320.3012695312518 0.065601629558844674 0.314296305179596 3102.696655273438 3102.696655273438 0.014124292880296709 687.69885253906261 20387.666992187504 63287956.000000007 4190.2536621093759
decision_type=2 2 2 2 2 2 2 2 2 2 2 2 2 2 2 2 2 2 2 2 2 2 2 2 2 2 2 2 2 2
left_child=1 2 24 6 5 -5 7 -4 11 10 21 12 16 15 -13 -14 18 -18 -2 20 -16 22 -10 -6 25 26 -1 29 -29 -26
right_child=8 -3 3 4 23 -7 -8 -9 9 -11 -12 14 13 -15 19 -17 17 -19 -20 -21 -22 -23 -24 -25 27 -27 -28 28 -30 -31
leaf_value=-0.05110075763423412 0.13228416973155258 0.1292299825984293 -0.053648030516358941 0.31039296277289613 -0.053593880854292189 0.12356927708525563 0.1386584398201442 0.044806334643233525 -0.05285550938986671 0.12927142212766049 0.108823530348072 0.16946191300764968 0.019881886153495707 0.12999249486398332 0.12282639798591931 0.10799883828736956 0.15722412959608345 0.12194312127925731 0.072501032031352761 0.14132769284076091 0.11805404786332473 -0.060699520810187847 -0.05614889064452952 -0.052164649277630419 -0.050948838956429335 -0.052322574446365927 -0.051444643914412017 -0.051181655937581019 -0.051040994332414519 -0.050947171256077964
leaf_weight=37.361039493232965 18.502045782282948 435.65171813964844 43.092444213107228 20.004001960158348 15.427099734544756 90.419648330658674 25.223593235015869 18.818627685308456 4.2964230217039567 78.367837905883789 40.231726698577404 53.703643316403031 20.681689998134971 26.0848388671875 45.44642012193799 10.010737400501968 79.629174070432782 839.42493382282555 25.259895466268063 102.62858918309212 56.262577049434185 4.952018152922391 4.1879004314541817 4.2768238671123973 2.2845688648521891 3.0569213461130849 31.02892392501235 1.0259069744497518 6.986075647175312 2.3171905595809221
leaf_count=1786 62 50 751 78 269 667 3 379 108 9 55 57 141 3 37 17 45 1154 61 92 80 41 44 110 125 96 1181 47 353 127
internal_value=0.113652 0.0954598 0.046635 0.0845114 0.12551 0.157414 0.0232839 -0.0237216 0.123163 0.104108 0.0673648 0.125132 0.12166 0.0860058 0.13885 0.0486224 0.123763 0.125 0.0977767 0.130805 0.120186 -0.0567729 -0.0544811 -0.0532837 -0.0512598 -0.0513024 -0.0512568 -0.0510185 -0.051059 -0.050948
internal_weight=2146.65 736.975 301.323 217.262 130.128 110.424 87.1347 61.9111 1409.67 132.036 53.6681 1277.63 1019.59 56.7773 258.041 30.6924 962.816 919.054 43.7619 204.338 101.709 13.4363 8.48432 19.7039 84.0606 71.4469 68.39 12.6137 8.01198 4.60176
internal_count=8028 6022 5972 2257 1124 745 1133 1130 2006 257 248 1749 1483 161 266 158 1322 1199 123 209 117 193 152 379 3715 3063 2967 652 400 252
is_linear=0
shrinkage=0.05


Tree=8
num_leaves=31
num_cat=0
split_feature=0 8 2 2 4 0 4 2 8 1 2 0 4 2 2 4 0 4 2 8 0 0 2 0 2 0 0 4 0 1
split_gain=194.159 216.17 262.407 127.218 204.528 145.738 88.0863 37.1153 34.3416 117.137 439.001 152.042 50.5511 33.1137 188.574 24.8625 12.5379 36.9354 11.3013 8.96898 29.7289 0.181424 0.0749152 0.0122697 0.0101888 0.00943127 0.000459284 0.000408223 6.09054e-05 1.28107e-05
threshold=-0.21411208808422086 1.0000000180025095e-35 0.056788373056243242 0.081010845910951326 703.51806640625011 -0.8563038408756255 527929.54687500012 0.00013291936053560542 1.0000000180025095e-35 2.1640425613334453 0.02345830523251384 0.30605763196945196 7.0147757530212411 0.0052081748605373361 0.0055727380598764396 79159700.000000015 0.1891913637518883 27.292864799499515 0.00078578752367512727 1.0000000180025095e-35 0.92191618680953991 0.58513519167900097 1.0000000180025095e-35 -0.4373744130134582 0.297169655659062 -0.4373744130134582 0.071697678416967406 687.69885253906261 0.075312349945306792 2.1640425613334453
decision_type=2 2 2 2 2 2 2 2 2 2 2 2 2 2 2 2 2 2 2 2 2 2 2 2 2 2 2 2 2 2
left_child=1 2 13 -4 5 -5 8 15 9 16 11 -11 -12 22 -15 19 17 -2 -18 20 -8 26 27 -16 -6 -24 -9 -1 29 -17
right_child=6 -3 3 4 24 -7 7 21 -10 10 12 -13 -14 14 23 28 18 -19 -20 -21 -22 -23 25 -25 -26 -27 -28 -29 -30 -31
leaf_value=-0.051056549431738409 0.11806735882975905 0.11903269282065101 0.19518072648613988 0.28029804336958375 -0.055359123596602534 0.072679410585646739 -0.051371780598300346 -0.052102137906140635 0.11960648391026477 -0.054112847423253313 0.031493950768123495 0.059531164966828379 0.11828069682812054 0.27568644714026336 -0.055984371378892832 -0.051104096526573412 0.12663270650643341 0.053691540198360345 0.11326012380990565 0.11944037776346304 0.10475776606280696 -0.067188295047087898 -0.057440778947543916 -0.053475910348768689 -0.053375276773161409 -0.054250862752926322 -0.053114010188554973 -0.051342129585189279 -0.051429220970114889 -0.050902944744784608
leaf_weight=22.047467632219195 95.219215281307697 116.3300313949585 21.525800719857216 10.748888649046419 11.031625900417568 39.561688696965575 4.4571244008839157 2.1984776146709901 652.34385204315186 59.388016160577536 17.675302367657423 58.34666708111763 330.84970317035913 5.4873830676078823 11.861778724938635 1.395113121718168 337.30095398426056 29.08759249560535 297.2064819894731 8.9406652450561523 9.6503430753946304 4.0782777220010757 5.3759396448731422 8.2759987376630271 15.659083008766173 4.0724409408867341 2.289051566272974 28.938099330291152 1.0448990128934381 1.8295110482722514
leaf_count=1094 194 13 87 3 135 406 213 58 73 1782 107 238 926 8 133 66 192 164 208 1 6 23 49 149 291 61 47 1200 40 105
internal_value=0.102984 0.0656502 0.0320075 0.0877233 0.0576835 0.117037 0.108856 0.0312555 0.110339 0.105405 0.085681 0.00220657 0.113879 -0.0317803 0.0158499 0.0597303 0.117524 0.103004 0.120369 0.0802605 0.0554301 -0.0595552 -0.0519765 -0.0549535 -0.0541952 -0.0560659 -0.0526183 -0.0512186 -0.0510975 -0.05099
internal_weight=2214.22 300.916 184.586 98.5271 77.0013 50.3106 1913.3 35.8835 1877.42 1225.07 466.26 117.735 348.525 86.0591 25.6252 27.3177 758.814 124.307 634.507 23.0481 14.1075 8.56581 60.4339 20.1378 26.6907 9.44838 4.48753 50.9856 4.26952 3.22462
internal_count=8072 3629 3616 922 835 409 4443 559 3884 3811 3053 2020 1033 2694 290 431 758 358 400 220 219 128 2404 282 426 110 105 2294 211 171
is_linear=0
shrinkage=0.05


Tree=9
num_leaves=22
num_cat=0
split_feature=7 0 4 0 4 4 4 4 0 0 4 4 2 4 2 2 2 0 0 4 1
split_gain=136.261 132.076 85.9964 60.5196 55.0959 65.8587 45.9325 25.3539 113.054 62.9112 32.0128 48.0953 65.49 22.1168 0.0901552 0.0186984 0.0047507 0.0011261 0.000156451 7.52098e-05 2.5679e-05
threshold=1.0000000180025095e-35 0.20659156143665316 52776.912109375007 -0.87883251905441273 543.59439086914074 37.674062728881843 558.06909179687511 7263.0754394531259 0.52007582783699047 0.47035907208919531 4776.3586425781259 1130.038024902344 0.9292336236022315 5.629091978073121 0.050363512462562675 6.8196161983298095e-05 0.00013291936053560542 0.072450842708349242 0.077499240636825575 1872.637878417969 2.1640425613334453
decision_type=2 2 2 2 2 2 2 2 2 2 2 2 2 2 2 2 2 2 2 2 2
left_child=1 2 3 15 5 -5 -6 10 9 14 11 13 -13 -3 -9 19 18 -18 20 -1 -4
right_child=-2 7 16 4 6 -7 -8 8 -10 -11 -12 12 -14 -15 -16 -17 17 -19 -20 -21 -22
leaf_value=-0.051753385301513882 0.11291233208921887 0.073809987136304059 -0.05105741622790716 0.079763777117424661 0.2200061712608494 0.034444757652730355 0.086535052094484866 -0.057119624728838594 0.10847538466728429 0.087325303963547096 0.14284510630095035 0.020472853988684828 0.13817960727934739 0.10908667154884913 -0.064152912617112312 -0.056091162798189043 -0.052312395352747759 -0.053730873586476879 -0.051480327593622088 -0.051263824035686904 -0.050857585936708798
leaf_weight=1.1955152526497825 751.4630126953125 48.701259553432465 2.8159825131297103 188.85670879110694 6.5690945852547875 139.29446495883167 343.8039969727397 10.996933188289409 87.686389662325382 11.79138972610235 50.895105518400669 38.030348740518093 17.144400984048843 506.74657514318824 7.7796140089631072 5.6564694792032242 3.2062244433909646 2.4825379401445389 1.7097363919019697 2.2819750960916281 3.7466471623629323
leaf_count=40 83 90 139 1386 29 1911 2680 121 76 32 40 161 5 470 50 68 82 45 63 100 226
internal_value=0.0955701 0.0867729 0.0710337 0.0735279 0.0752489 0.0605266 0.0890375 0.100935 0.0796104 -0.00319089 0.104746 0.101571 0.0570478 0.105994 -0.0600337 -0.0543174 -0.0518192 -0.0529314 -0.0510543 -0.0514321 -0.0509433
internal_weight=2232.85 1481.39 701.619 687.658 678.524 328.151 350.373 779.772 118.254 30.5679 661.518 610.623 55.1747 555.448 18.7765 9.13396 13.9611 5.68876 8.27237 3.47749 6.56263
internal_count=7897 7814 6769 6214 6006 3297 2709 1045 279 203 766 726 166 560 171 208 555 127 428 140 365
is_linear=0
shrinkage=0.05


Tree=10
num_leaves=30
num_cat=0
split_feature=0 7 4 0 0 4 1 0 0 2 4 0 2 2 2 2 2 0 2 2 4 2 4 4 4 0 0 4 4
split_gain=142.263 92.8169 93.0949 79.9863 98.2659 97.8038 67.9559 74.2718 67.7621 37.5675 63.8693 27.0062 121.961 16.357 9.40554 0.036315 0.0292326 0.0139946 0.00669407 0.00635256 0.00178359 0.00163639 6.92267e-05 6.46887e-05 6.55478e-05 6.03198e-05 4.88879e-07 1.16907e-07 2.32784e-07
threshold=-0.5176434814929961 1.0000000180025095e-35 10345110.000000002 -0.67166227102279652 -0.68525022268295277 1320.7589111328127 2.1640425613334453 -0.49489501118659968 -0.30416043102741236 0.50000000000000033 1292.2380371093752 0.1891913637518883 0.00060912303982445573 0.00045902828344445052 0.056788373056243242 0.00051951888930161234 6.8196161983298095e-05 0.11614777520298959 0.29258661253551727 0.297169655659062 958.85052490234386 0.00030337648530540166 3102.696655273438 687.69885253906261 1320.7589111328127 0.077499240636825575 -0.57184123992919911 70.955684661865249 376.29901123046881
decision_type=2 2 2 2 2 2 2 2 2 2 2 2 2 2 2 2 2 2 2 2 2 2 2 2 2 2 2 2 2
left_child=3 2 6 4 5 9 11 14 -9 10 -1 12 -2 -13 -8 23 22 21 -18 20 -17 25 -7 27 -25 -4 -26 -5 -29
right_child=1 -3 17 15 -6 16 7 8 -10 -11 -12 13 -14 -15 -16 19 18 -19 -20 -21 -22 -23 -24 24 26 -27 -28 28 -30
leaf_value=-0.054329603371559836 -0.055319177692176126 0.10673144256506317 -0.050902003575734683 -0.051124026638179998 0.24708279063235536 -0.051300796777133874 0.12557213228605188 0.030559245386759006 0.07956919360867587 0.19555145905017968 0.15130194709009276 0.11660157071358584 0.10114457861540825 0.097470077416778059 0.18870505103115015 -0.055147129170739752 -0.056140324416623401 -0.057114481758364838 -0.053527400418060367 -0.053624861994136276 -0.056491265177149232 -0.052260266429176576 -0.050872783909386404 -0.051590176443191409 -0.051231460209947025 -0.051276662434872146 -0.051268228692864931 -0.051090295044357428 -0.051121520423123804
leaf_weight=6.9872269239276656 15.028424128890036 785.4373836517334 6.0968503616750223 1.117653651162984 6.0380394998937836 5.1408552844077375 9.8939155600965041 78.005872204899788 735.66407437436283 7.1834861896932116 8.2169512212276459 176.83824898302555 72.725119061768055 303.4221311584115 14.612439773976801 4.1748611405491811 8.8322518132626993 1.1843341514468182 3.3927735723555079 4.1654567904770365 6.0366647094488144 3.6620197799056768 1.1574051808565853 2.2966591510921717 1.9150190688669684 1.3040968552231786 1.7124698180705307 1.3157672043889763 1.0924182478338478
leaf_count=161 225 86 354 52 32 209 107 1347 3876 22 4 164 150 211 28 52 96 19 59 68 62 97 69 82 82 54 73 63 51
internal_value=0.0907014 0.0929422 0.0853067 0.0209249 0.0587915 0.0310016 0.0865021 0.0774537 0.0748706 0.101322 0.056802 0.0998542 0.074349 0.104515 0.163216 -0.0536879 -0.0539895 -0.0519488 -0.0554152 -0.0552705 -0.0559417 -0.0513958 -0.0512221 -0.0512802 -0.0513812 -0.050968 -0.0512488 -0.0511107 -0.0511045
internal_weight=2274.65 2203.87 1418.44 70.776 46.949 40.911 1406.19 838.176 813.67 22.3877 15.2042 568.014 87.7535 480.26 24.5064 23.827 18.5233 12.2473 12.225 14.377 10.2115 11.063 6.29826 9.44999 5.92415 7.40095 3.62749 3.52584 2.40819
internal_count=7955 6718 6632 1237 652 620 6108 5358 5223 187 165 750 375 375 135 585 433 524 155 182 114 505 278 403 237 408 155 166 114
is_linear=0
shrinkage=0.05


Tree=11
num_leaves=19
num_cat=0
split_feature=7 0 8 2 2 4 4 0 0 4 4 2 4 2 2 0 0 4
split_gain=168.402 140.523 319.31 263.241 237.786 147.196 36.6558 77.796 22.3224 33.7662 65.9456 26.4525 1.48628 0.108649 0.0528866 0.021143 0.0103529 0.000526595
threshold=1.0000000180025095e-35 0.077499240636825575 1.0000000180025095e-35 0.0036530273514466445 0.0068579753241118932 543.59439086914074 40381.740234375007 0.62487870454788219 0.52007582783699047 79.858661651611342 346.70878601074224 6.8196161983298095e-05 201.95913696289065 0.068610944033538665 1.0000000180025095e-35 0.314296305179596 -0.37864159047603602 3102.696655273438
decision_type=2 2 2 2 2 2 2 2 2 2 2 2 2 2 2 2 2 2
left_child=1 2 3 14 -5 -6 8 13 9 11 -11 -3 -10 15 17 -8 -16 -1
right_child=-2 6 -4 4 5 -7 7 -9 12 10 -12 -13 -14 -15 16 -17 -18 -19
leaf_value=-0.051292164780588081 0.10113495825493207 0.05889550988302638 0.10319534518482465 0.21212282678457825 -0.02708306956019876 0.065698044667836825 -0.052448743408262305 0.08073156799141977 0.093187550652604478 0.019823551851509219 0.078480626234654946 0.096233928926579435 0.10087519839689313 -0.06456759021572045 -0.056979509579874021 -0.057469406496660581 -0.053773378002152553 -0.050912225577326081
leaf_weight=71.982544738799334 742.41100215911865 55.870286241173744 174.29277610778809 20.299713514745235 67.330746665596962 117.08438595384359 3.4428852517157775 34.049195483326912 117.40843833982944 57.177241029217839 295.84321329370141 314.16032060980797 135.35087726265192 5.299088053405284 4.0202624946832657 5.3638810589909554 6.7378313764929754 10.442937743850051
leaf_count=3093 81 328 19 80 1028 994 102 48 43 241 803 232 65 39 39 50 116 604
internal_value=0.0816668 0.0720065 0.0494413 0.0179911 0.0497019 0.0318233 0.0824122 0.0398268 0.0845137 0.0800425 0.0689802 0.0905963 0.0973042 -0.0589105 -0.0516744 -0.0555066 -0.0549715 -0.051244
internal_weight=2238.57 1496.16 472.191 297.898 204.715 184.415 1023.97 48.155 975.81 723.051 353.02 370.031 252.759 14.1059 93.1836 8.80677 10.7581 82.4255
internal_count=8005 7924 5973 5954 2102 2022 1951 239 1712 1604 1044 560 108 191 3852 152 155 3697
is_linear=0
shrinkage=0.05


Tree=12
num_leaves=30
num_cat=0
split_feature=8 0 2 2 2 2 0 0 1 2 0 0 2 2 2 0 2 0 7 0 0 2 0 1 0 0 0 0 0
split_gain=130.729 157.183 471.34 71.6314 220.579 67.1255 57.9706 90.3769 34.2825 117.438 63.3336 71.6987 33.0816 21.4805 22.5868 32.2518 18.9393 4.57921 9.58473 4.6394 3.40278 0.264003 0.0640228 0.0191285 0.00912444 0.00344152 0.000502049 8.59794e-05 3.06193e-05
threshold=1.0000000180025095e-35 0.15965962409973147 1.0000000180025095e-35 0.014676934567709706 0.078891014329654854 0.5134026373408721 -0.45614483952522272 -0.17076317965984342 2.1640425613334453 0.02345830523251384 0.30605763196945196 0.32465781271457678 0.046891626559074633 0.00078578752367512727 0.088235854888061141 0.52007582783699047 0.57735026918962595 0.36227084696292883 1.0000000180025095e-35 0.48203945159912115 0.34401424229145056 0.00030337648530540166 0.09476726129651071 2.1640425613334453 0.15294045209884646 0.081087946891784682 0.09476726129651071 -0.4373744130134582 0.14743975549936297
decision_type=2 2 2 2 2 2 2 2 2 2 2 2 2 2 2 2 2 2 2 2 2 2 2 2 2 2 2 2 2
left_child=1 2 23 6 22 -6 -4 -8 13 10 21 -12 -11 17 15 -15 -14 18 -3 -19 -16 -10 -5 24 25 -1 27 -25 -28
right_child=-2 8 3 4 5 -7 7 -9 9 12 11 -13 16 14 20 -17 -18 19 -20 -21 -22 -23 -24 26 -26 -27 28 -29 -30
leaf_value=-0.051685530709770035 0.096621839392979164 0.071141412774147372 0.16526182291935376 -0.054858655904364388 0.10213526649614578 0.0496814954342173 -0.054738147459665723 0.10969989293105867 -0.054269448226762308 0.13009447937759241 0.1245295282649293 0.0088827346540444815 0.06297501498607147 0.029255511127677589 0.094836499332867349 0.086895385276453935 0.09136850706404466 0.10682275690841461 0.09895612971402086 0.093908924791466591 0.081216499192118152 -0.065856896439793575 -0.061937211707100398 -0.05124566584736992 -0.056490813934619466 -0.053543079253325521 -0.051550931372523458 -0.051133030907998159 -0.051791868148107802
leaf_weight=4.401136683300134 806.45587921142578 49.566282249987125 32.282822787761688 32.207066820934415 129.30707880854607 115.44667770899832 10.038129463791845 49.86081936955452 9.7192789651453513 36.519361525774002 18.830703493207693 46.493221126496792 104.07608785480261 47.401496790349483 99.422605969011784 49.729253277182579 134.79902613162994 128.1286569237709 82.562005996704102 152.12190094590187 85.119682416319847 9.9455677978694421 3.546077847480773 25.376449286006391 1.9270149618387229 5.7527914382517338 5.3295873627066603 50.981101807206869 1.7521678730845449
leaf_count=191 88 148 78 453 756 781 141 208 151 44 31 211 191 98 54 22 117 60 9 49 60 83 28 1133 22 107 186 2460 55
internal_value=0.0803449 0.071724 0.0476159 0.0730134 0.0604474 0.0773936 0.111252 0.0821426 0.0824289 0.0699174 0.018538 0.0422198 0.0857735 0.0889255 0.0782823 0.0587661 0.0789977 0.0961953 0.0885218 0.099813 0.0885543 -0.0601298 -0.0555607 -0.051477 -0.0533366 -0.0527379 -0.0512078 -0.0511705 -0.0516105
internal_weight=2329.1 1522.64 468.209 372.689 280.507 244.754 92.1818 59.8989 1054.44 360.383 84.9888 65.3239 275.394 694.052 281.673 97.1308 238.875 412.379 132.128 280.251 184.542 19.6648 35.7531 95.5202 12.0809 10.1539 83.4393 76.3576 7.08176
internal_count=8015 7927 6599 2445 2018 1537 427 349 1328 828 476 242 352 500 234 120 308 266 157 109 114 234 481 4154 320 298 3834 3593 241
is_linear=0
shrinkage=0.05


Tree=13
num_leaves=30
num_cat=0
split_feature=8 0 2 4 2 2 0 4 4 1 2 4 2 2 0 2 4 2 0 4 0 2 2 1 4 4 0 4 0
split_gain=158.296 154.82 383.633 93.3267 107.262 134.766 48.8703 34.1267 57.9138 32.0841 114.5 76.669 13.9452 32.3617 15.4315 12.5453 17.7448 41.8028 5.95615 12.3421 2.83565 0.377949 0.0106696 0.0106004 0.00654903 0.001033 0.000390188 0.000291902 1.8716e-05
threshold=1.0000000180025095e-35 0.15614748746156695 1.0000000180025095e-35 2098.106079101563 0.014676934567709706 0.10647435356587659 -0.45614483952522272 3043.323608398438 3102.696655273438 2.1640425613334453 0.0014631852004671089 20387.666992187504 0.02345830523251384 0.0055727380598764396 0.2260541841387749 0.00078578752367512727 30.292836189270023 0.11547798604320759 0.32465781271457678 24.2473258972168 0.47035907208919531 6.8196161983298095e-05 0.31533708010875922 2.1640425613334453 50.642778396606452 66631.773437500015 0.09476726129651071 3102.696655273438 0.14743975549936297
decision_type=2 2 2 2 2 2 2 2 2 2 2 2 2 2 2 2 2 2 2 2 2 2 2 2 2 2 2 2 2
left_child=1 2 23 4 6 -6 -4 22 -9 15 11 21 13 -12 -14 18 -17 -18 19 -3 -20 -11 -5 24 -1 -26 27 -25 -28
right_child=-2 9 3 7 5 -7 -8 8 -10 10 12 -13 14 -15 -16 16 17 -19 20 -21 -22 -23 -24 26 25 -27 28 -29 -30
leaf_value=-0.054070864060895819 0.09218492811091894 0.097043030860216886 0.17158529584985849 -0.056872373138428356 -0.020000966710575871 0.074551629940854916 0.092968690268891971 0.14230025876912694 -0.0044526877284511643 -0.057861686353282829 0.082068271155413555 0.09027093769338411 0.10044378800588026 0.0059172350679325761 0.072068420704763977 0.085360199377669893 0.013759220067736456 0.078737037730284842 0.097937840103473103 0.062786052388031435 0.087740562241187856 -0.071289229987207464 -0.054070229130886653 -0.051144460090754122 -0.052314373958701581 -0.050940696913882436 -0.051462546576044634 -0.050830152761993 -0.051664364897948171
leaf_weight=5.2803750876337272 838.06365871429443 48.12726005166769 31.02828336507082 12.235045082867147 46.654790986329317 196.02272963896394 54.469539318233728 8.7260594889521581 29.283453052863479 20.947430152446035 34.788218308240175 11.913411641493438 61.980943970382214 23.29282545670867 211.11880087852478 160.81195840239525 34.791828993707895 85.778545200824738 122.58538140356541 57.952389001846313 153.59589004516602 6.9891193062067023 4.7028753869235507 64.435606449842453 2.6447001229971647 2.8363299798220396 5.2442752718925467 8.3435158375650627 1.4709847494959829
leaf_count=86 92 36 42 126 517 1096 245 13 327 235 77 54 81 100 272 75 84 71 64 127 57 44 72 3072 64 160 193 535 49
internal_value=0.0747629 0.065081 0.041396 0.063243 0.0733408 0.0563739 0.1215 0.00293387 0.0292382 0.0759172 0.0641418 -0.0159315 0.0737767 0.0515287 0.0785083 0.0825006 0.074488 0.059987 0.0883987 0.0783281 0.0922667 -0.061221 -0.0560943 -0.0513414 -0.0528142 -0.0516035 -0.0511421 -0.0511084 -0.0515068
internal_weight=2346.12 1508.05 473.379 383.123 328.175 242.678 85.4978 54.9474 38.0095 1034.67 371.031 39.85 331.181 58.081 273.1 663.643 281.382 120.57 382.261 106.08 276.181 27.9365 16.9379 90.2558 10.7614 5.48103 79.4944 72.7791 6.71526
internal_count=8066 7974 6597 2438 1900 1613 287 538 340 1377 863 333 530 177 353 514 230 155 284 163 121 279 198 4159 310 224 3849 3607 242
is_linear=0
shrinkage=0.05


Tree=14
num_leaves=30
num_cat=0
split_feature=8 0 2 4 0 0 4 1 2 0 0 4 2 2 4 2 2 0 4 2 4 2 2 1 4 4 4 4 4
split_gain=159.324 274.871 189.688 113.842 95.0218 91.741 57.7502 44.0981 128.595 109.291 79.0013 24.6486 25.3036 13.4995 29.7786 52.3465 7.91112 19.7619 5.42186 0.437623 0.0158985 0.0068011 0.00312138 0.000452579 0.00149264 0.000255158 0.00047153 2.24472e-05 2.10418e-06
threshold=1.0000000180025095e-35 0.077499240636825575 1.0000000180025095e-35 2098.106079101563 -0.49489501118659968 -0.33863098919391627 1924.738952636719 2.1640425613334453 0.043583427325641438 0.30605763196945196 0.34401424229145056 141.20344543457034 0.09038233786584636 0.0032323893206205878 30.292836189270023 0.54301555075660446 0.0013347092452343705 0.1891913637518883 10.990976333618166 6.8196161983298095e-05 3102.696655273438 0.32381955113265232 0.011987405585094013 2.1640425613334453 50.642778396606452 3102.696655273438 653.47909545898449 52776.912109375007 72445976.000000015
decision_type=2 2 2 2 2 2 2 2 2 2 2 2 2 2 2 2 2 2 2 2 2 2 2 2 2 2 2 2 2
left_child=1 2 23 4 6 -6 -4 13 9 19 -11 -10 -13 16 18 -16 17 -3 -15 -9 21 -5 -22 24 -1 26 -25 -27 -26
right_child=-2 7 3 20 5 -7 -8 8 11 10 -12 12 -14 14 15 -17 -18 -19 -20 -21 22 -23 -24 25 28 27 -28 -29 -30
leaf_value=-0.052948003727649941 0.088748252933398067 0.054333634477401707 0.076102025728985057 -0.056416426655717569 -0.054977468590072201 0.046258349747528182 0.18579257237889019 -0.052651049339559268 0.04169614442938957 0.096242748484785978 0.0028398222984078866 0.1121124712665119 0.074795013370054869 0.075565359953144978 0.0051804298241171281 0.078755116467342887 0.10386398740876573 0.0882873201689654 0.091966568364754239 -0.063997889703805086 -0.054814297260932669 -0.054051114338264074 -0.052957538042734432 -0.050950903846175566 -0.050909477070554404 -0.050842449095941544 -0.051231985695440213 -0.050665731009813912 -0.050812452096217278
leaf_weight=1.3387080393731587 776.20985126495361 49.955931076779962 65.039637446403503 10.804274402558805 26.704773750156164 138.14330326393247 14.713874436914919 15.597625985741614 42.402524851262569 42.019211128354073 49.08372525125742 57.583316005766392 215.14529509097338 105.450758010149 39.471134010702372 62.384195797145367 54.935411110520363 301.45788415893912 96.502168171107769 18.667312765493989 2.9081511162221423 4.2284933961927882 10.210596445947884 31.9773283097893 0.93694498576223884 4.6465893797576419 27.972320577129722 2.9301221836358309 1.3845573440194128
leaf_count=31 86 205 290 118 363 1146 25 427 76 59 219 47 279 70 106 48 21 202 35 157 44 66 212 1767 55 290 1243 226 88
internal_value=0.0703705 0.0608261 0.0216064 0.0405761 0.0515348 0.0298585 0.096339 0.0725491 0.0601208 0.0172894 0.0459199 0.0771603 0.0826741 0.0802582 0.0722856 0.0502433 0.086219 0.0834606 0.0834026 -0.0588327 -0.0546411 -0.0557511 -0.0533691 -0.0510769 -0.0516184 -0.0510475 -0.0510821 -0.0507741 -0.0508516
internal_weight=2270.81 1494.6 343.94 272.753 244.602 164.848 79.7535 1150.66 440.499 125.368 91.1029 315.131 272.729 710.157 303.808 101.855 406.349 351.414 201.953 34.2649 28.1515 15.0328 13.1187 71.1866 3.66021 67.5264 59.9496 7.57671 2.3215
internal_count=8001 7915 5964 2264 1824 1509 315 1951 1264 862 278 402 326 687 259 154 428 407 105 584 440 184 256 3700 174 3526 3010 516 143
is_linear=0
shrinkage=0.05


Tree=15
num_leaves=17
num_cat=0
split_feature=7 8 1 2 4 2 4 4 2 4 4 4 2 2 4 4
split_gain=133.319 114.259 170.028 279.07 148.123 47.5287 39.9071 75.6916 23.7897 13.9222 32.0256 17.5728 12.7038 12.284 10.6339 0.0702396
threshold=1.0000000180025095e-35 1.0000000180025095e-35 2.1640425613334453 0.0024768918732543661 15.34657669067383 0.5134026373408721 20387.666992187504 26094.627929687504 1.0000000180025095e-35 511.19529724121099 985.55404663085949 3.085932850837708 0.26816979397999824 1.0000000180025095e-35 1097.6317138671877 8.0961046218872088
decision_type=2 2 2 2 2 2 2 2 2 2 2 2 2 2 2 2
left_child=1 2 9 6 15 -6 8 -8 -4 11 -11 12 -1 -13 -12 -5
right_child=-2 -3 3 4 5 -7 7 -9 -10 10 14 13 -14 -15 -16 -17
leaf_value=0.017524207543998149 0.086018998032228233 0.086582299336447011 -0.052527767013783581 -0.063776225453716126 0.067364309120579294 0.033840274849715128 0.15133245270948589 -0.055544470029268614 0.00068779669361542113 -0.001510346792658939 0.12029036684184009 0.060107985170016948 0.071958196294468202 0.082441249612641682 0.063088948535776207 -0.058252142861383194
leaf_weight=20.812247272580862 738.38994693756104 331.39383029937744 86.395609016530216 18.662526369094852 380.15529570914805 146.45865456946194 8.2879499830305594 9.4774368619546276 27.746301341801882 19.660790305584669 9.3115570694208127 72.855807675048709 22.100183188915253 397.51145506650209 63.75763953384012 8.319746755063532
leaf_count=103 83 37 3759 212 1562 748 16 332 196 64 8 202 24 227 335 105
internal_value=0.0684055 0.0603917 0.0536714 0.0366139 0.0521865 0.0580408 -0.0287419 0.0409682 -0.0395918 0.0729664 0.0551364 0.0761876 0.0455581 0.078982 0.0703784 -0.0620729
internal_weight=2361.3 1622.91 1291.51 685.504 553.596 526.614 131.907 17.7654 114.142 606.01 92.73 513.28 42.9124 470.367 73.0692 26.9823
internal_count=8013 7930 7893 6930 2627 2310 4303 348 3955 963 407 556 127 429 343 317
is_linear=0
shrinkage=0.05


Tree=16
num_leaves=20
num_cat=0
split_feature=8 0 7 0 0 4 1 0 0 7 0 4 0 4 7 0 4 4 4
split_gain=129.176 166.785 72.3354 113.892 178.938 86.3933 71.3779 42.5783 163.59 37.8319 38.5222 115.902 11.6841 8.42953 13.5513 25.6523 5.37194 11.3219 0.00652117
threshold=1.0000000180025095e-35 0.077499240636825575 1.0000000180025095e-35 -0.4373744130134582 -0.44259178638458246 543.59439086914074 2.1640425613334453 -0.30416043102741236 -0.30013725161552424 1.0000000180025095e-35 0.30605763196945196 366.77755737304693 0.58513519167900097 408.88476562500006 1.0000000180025095e-35 0.54414263367652904 234.11454010009768 50.642778396606452 543.59439086914074
decision_type=2 2 2 2 2 2 2 2 2 2 2 2 2 2 2 2 2 2 2
left_child=1 2 3 4 5 -1 13 18 -9 10 11 -8 -12 16 15 -15 17 -3 -5
right_child=-2 6 -4 7 -6 -7 9 8 -10 -11 12 -13 -14 14 -16 -17 -18 -19 -20
leaf_value=-0.054666827270981322 0.08243809344939558 0.079359116223818499 0.087785797978552516 -0.052718317467519808 0.37100765117196038 0.059810881722482778 -0.069780165181240347 0.27213311750364072 -0.0040833012646911719 0.088808043871735257 0.047878920907431045 0.047341714448307606 0.071324172079093112 0.028207922316050023 0.080335326102089905 0.081452618621206563 0.089137241280364696 0.062429170512491895 -0.054043345920768572
leaf_weight=19.141191752627492 787.98927211761475 458.22854809835553 44.999405860900879 17.367244824767113 4.3116980120539656 118.5776834404096 27.333795672282577 5.5710409460589281 141.77256188541651 53.84466552734375 169.29535875469446 92.962612165138125 77.452036902308464 50.8157998342067 77.333951950073242 40.770448684692383 85.386248454451561 125.88065794110298 19.955019555985928
leaf_count=465 90 280 5 557 28 1267 315 31 3165 6 373 496 75 203 9 25 40 131 475
internal_value=0.0658151 0.0577839 0.0283538 0.0201676 0.0538301 0.0438999 0.0664705 -0.005723 0.0063604 0.0496696 0.0439281 0.0207292 0.0552382 0.0749047 0.0649237 0.0519103 0.077423 0.0757106 -0.0534268
internal_weight=2418.99 1631 371.696 326.696 142.031 137.719 1259.3 184.666 147.344 420.888 367.044 120.296 246.747 838.416 168.92 91.5862 669.495 584.109 37.3223
internal_count=8036 7946 5993 5988 1760 1732 1953 4228 3196 1265 1259 811 448 688 237 228 451 411 1032
is_linear=0
shrinkage=0.05


Tree=17
num_leaves=28
num_cat=0
split_feature=8 0 2 1 2 0 4 0 4 4 4 4 2 2 2 0 4 0 4 2 1 0 4 4 4 4 0
split_gain=156.569 184.433 223.084 82.2607 98.493 56.806 53.9149 63.0492 51.6452 36.6095 36.2041 22.8408 10.8223 11.769 10.0717 4.38085 9.72617 4.39507 2.37266 0.345196 0.0111881 0.0111021 0.00604189 0.00125417 0.00026767 0.00032113 0.00017827
threshold=1.0000000180025095e-35 0.15294045209884646 1.0000000180025095e-35 2.1640425613334453 0.0052081748605373361 0.1219477914273739 6587.0605468750009 0.47035907208919531 20387.666992187504 6587.0605468750009 5915.3037109375009 4190.2536621093759 0.00078578752367512727 0.052539333318041066 0.0030197313956782765 0.28883154690265661 24.2473258972168 0.47035907208919531 6.6367526054382333 0.00013291936053560542 2.1640425613334453 0.075312349945306792 50.642778396606452 66631.773437500015 641.24243164062511 1320.7589111328127 0.014124292880296709
decision_type=2 2 2 2 2 2 2 2 2 2 2 2 2 2 2 2 2 2 2 2 2 2 2 2 2 2 2
left_child=1 2 20 12 8 9 11 -8 19 10 -4 -6 15 14 -14 16 -3 -17 -15 -5 22 -11 -1 -24 26 -26 -22
right_child=-2 3 5 4 6 -7 7 -9 -10 21 -12 -13 13 18 -16 17 -18 -19 -20 -21 24 -23 23 -25 25 -27 -28
leaf_value=-0.054106976319785817 0.079787438237849437 0.082034273092609022 0.045340946572939973 -0.057368817348426131 0.056532579639454621 -0.066636662326950619 -0.069180198746479973 0.044511197385473239 0.049795187051266857 -0.052795249524160426 0.15100823453599732 0.095532103990085548 0.069088817751772974 0.079359538500179516 0.035913814482126119 0.085594653141099833 0.051166012217428197 0.074399225544869982 0.068183964170898712 -0.06814263837353117 -0.050832453690048213 -0.056674659968613421 -0.052502258868812879 -0.050917858257861798 -0.051289740019118138 -0.05097187486921774 -0.051166814695190001
leaf_weight=4.6151301842182857 798.31098461151123 57.163258984684944 338.96053981408477 19.23967833258212 175.48240255191922 11.711247742176054 17.28729734569788 41.393804125487804 15.600462108850477 6.4924694225192052 8.3048009276390058 47.761513642966747 40.478038989007473 66.424118742346764 52.617220371961594 174.53533379733562 46.097239028662443 176.13065481185913 166.64733650535345 12.117161974310873 28.17173389159143 2.5759256295859814 2.2124689761549234 2.8682288583368063 11.89644695445895 23.926458759233356 4.6435457263141862
leaf_count=75 93 36 2195 239 245 77 104 69 75 147 9 30 27 21 75 82 104 64 115 87 1760 33 50 168 522 1353 217
internal_value=0.0617872 0.0525482 0.0254099 0.0634718 0.042499 0.041717 0.053666 0.011018 -0.0245462 0.0452781 0.047868 0.0648763 0.0723139 0.0653664 0.0503384 0.077306 0.0682542 0.0799715 0.0713689 -0.0615321 -0.0512075 -0.0538972 -0.0527974 -0.0516078 -0.0509829 -0.0510774 -0.0508798
internal_weight=2353.67 1555.35 446.379 1108.98 328.882 368.045 281.925 58.6811 46.9573 356.334 347.265 223.244 780.093 326.167 93.0953 453.926 103.26 350.666 233.071 31.3568 78.334 9.0684 9.69583 5.0807 68.6382 35.8229 32.8153
internal_count=8072 7979 6606 1373 849 2461 448 173 401 2384 2204 275 524 238 102 286 140 146 136 326 4145 180 293 218 3852 1875 1977
is_linear=0
shrinkage=0.05


Tree=18
num_leaves=15
num_cat=0
split_feature=7 8 0 4 4 4 0 4 4 0 0 0 0 0
split_gain=137.582 110.383 192.12 88.51 96.8624 144.72 96.1358 63.0728 20.8642 16.5144 13.9045 21.0265 1.07157 0.00312448
threshold=1.0000000180025095e-35 1.0000000180025095e-35 0.28883154690265661 30.731518745422367 136.54327392578128 141.20344543457034 -0.17076317965984342 7.0147757530212411 40381.740234375007 0.71934479475021373 0.54414263367652904 0.35216529667377477 0.16382293403148654 -0.4373744130134582
decision_type=2 2 2 2 2 2 2 2 2 2 2 2 2 2
left_child=1 2 3 6 12 -6 13 -8 10 -10 11 -4 -5 -1
right_child=-2 -3 8 4 5 -7 7 -9 9 -11 -12 -13 -14 -15
leaf_value=-0.05433711259869034 0.078346966582704486 0.078538205007130088 0.073232154278733599 -0.054377815293914361 0.27509042616839635 0.016218043027824269 0.018620745020848158 0.084345189573146143 -0.00034424646650940216 0.058761231504976176 0.075523581284786756 0.051544287093098107 -0.072929113776457763 -0.052733252082179209
leaf_weight=3.7739840103313353 698.40705108642578 314.25085544586182 186.19788432866335 33.535169698297977 5.4800681062042704 363.99569473043084 52.235677983611822 121.19717318937182 22.436034325510263 24.972032889723778 217.64558783173561 279.53409839421511 10.137211900204418 15.541010266169904
leaf_count=93 83 37 205 870 26 4978 363 324 84 35 84 385 65 499
internal_value=0.0597437 0.0518738 0.0456051 0.0247871 0.0117342 0.0200576 0.0527657 0.0645499 0.0628654 0.0307894 0.0650906 0.060215 -0.0586839 -0.0530466
internal_weight=2349.34 1650.93 1336.68 605.896 413.148 369.476 192.748 173.433 730.786 47.4081 683.378 465.732 43.6724 19.315
internal_count=8131 8048 8011 7218 5939 5004 1279 687 793 119 674 590 935 592
is_linear=0
shrinkage=0.05


Tree=19
num_leaves=18
num_cat=0
split_feature=7 8 2 1 4 4 4 4 4 2 2 2 2 2 4 4 4
split_gain=151.689 106.364 134.5 121.925 69.2137 65.8578 48.3329 49.7695 37.9836 73.4008 55.9053 36.3435 69.7053 51.2044 14.3926 13.711 0.0438353
threshold=1.0000000180025095e-35 1.0000000180025095e-35 1.0000000180025095e-35 2.1640425613334453 1320.7589111328127 43.533735275268562 20387.666992187504 26094.627929687504 3.085932850837708 0.70710678118654624 0.55425078626799851 0.13622111592798722 0.40330086139656618 0.10188028503344837 65.43186187744142 8.768832206726076 4190.2536621093759
decision_type=2 2 2 2 2 2 2 2 2 2 2 2 2 2 2 2 2
left_child=1 2 3 5 8 15 16 -8 9 -4 -10 13 -13 -6 -7 -1 -5
right_child=-2 -3 4 6 11 14 7 -9 10 -11 -12 12 -14 -15 -16 -17 -18
leaf_value=-0.066470035880439468 0.076015451005369536 0.07623485870435899 -0.076252026603266687 -0.052210688191636268 0.02665526049362096 0.098931537739902153 0.11696903024110433 -0.055628303266059734 0.064183806112421332 0.067269875891629874 0.025973088547999262 -0.069542362108434272 0.025779212641626744 0.10032376048897217 0.049612874397131003 0.0020732861659543264 -0.056443026259782564
leaf_weight=12.170824414119126 639.69940042495728 256.86191177368164 15.538046177476643 73.658896612003446 111.14488375745714 18.46908937394619 9.4165643546730298 7.5060090050101271 626.00759853422642 20.879338584840298 113.00423097237945 24.94690864905715 82.949165746569633 29.941971525549889 74.322224551811814 18.214965691789985 6.6720779417082658
leaf_count=96 78 31 126 3563 556 24 14 314 1432 31 526 193 396 52 341 70 195
internal_value=0.0556261 0.0469406 0.0408961 0.00546571 0.0485199 0.0385078 -0.036384 0.0404135 0.0558844 0.00603401 0.0583409 0.025584 0.00373968 0.0422895 0.0594292 -0.0253813 -0.0525622
internal_weight=2141.4 1501.7 1244.84 220.431 1024.41 123.177 97.2535 16.9226 775.429 36.4174 739.012 248.983 107.896 141.087 92.7913 30.3858 80.331
internal_count=8038 7960 7929 4617 3312 531 4086 328 2115 157 1958 1197 589 608 365 166 3758
is_linear=0
shrinkage=0.05


Tree=20
num_leaves=22
num_cat=0
split_feature=8 0 2 7 2 4 4 4 4 7 0 4 4 2 2 0 0 0 4 0 0
split_gain=131.953 184.901 123.914 95.9425 74.5952 74.988 82.8461 64.2623 21.6543 27.983 32.6358 33.8744 6.77077 11.1468 27.0767 2.26602 0.9379 0.0912274 0.0280198 0.00882852 0.00655109
threshold=1.0000000180025095e-35 0.17608883976936343 1.0000000180025095e-35 1.0000000180025095e-35 0.78956261096762625 1377.379577636719 3043.323608398438 4.5007901191711435 408.88476562500006 1.0000000180025095e-35 0.54414263367652904 4190.2536621093759 255.65725708007815 0.0034173570589094695 0.049100599744841301 0.32465781271457678 0.10357502847909929 0.15294045209884646 29.372910499572757 0.081087946891784682 -0.066356241703033433
decision_type=2 2 2 2 2 2 2 2 2 2 2 2 2 2 2 2 2 2 2 2 2
left_child=1 2 3 17 5 7 -7 -4 12 10 11 -10 13 15 -15 -3 20 19 -19 -1 -6
right_child=-2 8 4 -5 16 6 -8 -9 9 -11 -12 -13 -14 14 -16 -17 -18 18 -20 -21 -22
leaf_value=-0.050913709042580017 0.073635400051957012 0.075865700502821889 -0.064587763335188758 0.078959740825693334 -0.05474443938232243 -0.057527037228127742 0.041764369763468499 0.055076455963992625 0.0098961308931881185 0.074876504554857712 0.065396764231692259 0.050273137813406178 0.077023428859359311 0.018880700217223392 0.062235432420751795 0.066309910671921879 -0.082443024749088184 -0.060502913350321 -0.054364288872156566 -0.052413362700596239 -0.057149183756021231
leaf_weight=60.068128788843751 671.36038827896118 86.68520001322031 11.661034967750309 17.063042640686035 11.888948231935501 37.907238114625216 47.124680334702134 296.2060041166842 97.15467020496726 88.061750411987305 107.45679070055485 111.6284843403846 94.78892669454217 43.391672477126122 211.78996023535728 218.21174776554108 4.0042460709810248 3.1627555787563315 4.5093132872134447 11.730552986264227 3.7177833952009687
leaf_count=3725 84 90 144 2 168 389 313 1400 320 11 91 293 53 71 137 124 20 28 82 375 44
internal_value=0.0550864 0.0471454 0.0223802 -0.0286152 0.0343139 0.0390641 -0.00249975 0.050544 0.0590478 0.049949 0.0430075 0.0314842 0.0646652 0.0625736 0.0548633 0.0690267 -0.0608559 -0.0517125 -0.0568949 -0.0511587 -0.0553173
internal_weight=2239.57 1568.21 509.044 96.5338 412.51 392.899 85.0319 307.867 1059.17 404.302 316.24 208.783 654.868 560.079 255.182 304.897 19.611 79.4708 7.67207 71.7987 15.6067
internal_count=7964 7880 6690 4212 2478 2246 702 1544 1190 715 704 613 475 422 208 214 232 4210 110 4100 212
is_linear=0
shrinkage=0.05


Tree=21
num_leaves=15
num_cat=0
split_feature=7 8 0 4 0 0 4 4 4 0 0 4 0 0
split_gain=127.256 95.9969 102.012 84.7591 98.8344 137.708 97.3608 63.7014 57.9837 97.5065 27.3792 28.4142 0.303448 0.0392663
threshold=1.0000000180025095e-35 1.0000000180025095e-35 0.077499240636825575 669.39111328125011 -0.17076317965984342 -0.16662147641181943 703.51806640625011 3102.696655273438 7263.0754394531259 0.47035907208919531 0.52007582783699047 50.642778396606452 0.314296305179596 -0.4373744130134582
decision_type=2 2 2 2 2 2 2 2 2 2 2 2 2 2
left_child=1 2 3 4 13 -6 -5 -8 10 12 11 -4 -10 -1
right_child=-2 -3 8 6 5 -7 7 -9 9 -11 -12 -13 -14 -15
leaf_value=-0.055899176255706395 0.072445663973785546 0.072606226831807147 0.057433574505190134 0.15281650714515649 0.26758872522250143 0.008343875462421213 0.037400904131953482 -0.052636809278106447 -0.05843848709030533 0.04551391445812418 0.066956315089677892 0.036397504914158565 -0.068499651587056787 -0.05339307210064257
leaf_weight=22.885466363281012 623.41334056854248 275.43159914016724 324.03508190438151 16.624121732078493 5.6300934990867963 56.812324703671038 161.84375610388815 22.358302747830749 15.496214139275255 65.557774044573307 235.07792696356773 318.12413168512285 14.512973710894583 49.301826520822942
leaf_count=548 80 35 476 49 27 1021 1917 901 222 105 95 948 87 1488
internal_value=0.05331 0.0457773 0.0401289 0.0163527 -0.0143436 0.0317186 0.0369308 0.0264722 0.0483278 0.0113437 0.0523568 0.0470124 -0.0633042 -0.0541876
internal_weight=2207.1 1583.69 1308.26 335.456 134.63 62.4424 200.826 184.202 972.804 95.567 877.237 642.159 30.0092 72.1873
internal_count=7999 7919 7884 5951 3084 1048 2867 2818 1933 414 1519 1424 309 2036
is_linear=0
shrinkage=0.05


Tree=22
num_leaves=30
num_cat=0
split_feature=8 0 2 2 4 0 2 0 1 2 0 0 2 4 0 2 4 4 2 0 2 2 2 0 4 4 1 4 4
split_gain=106.734 121.226 186.704 50.385 88.8136 52.6345 50.9045 57.8341 42.6504 117.959 35.513 73.0918 14.3166 35.4953 15.975 9.1195 18.1398 17.4427 9.03439 18.4742 1.02961 0.301669 0.133164 0.0397638 0.0117827 0.000590823 0.000502865 0.00108561 0.000367444
threshold=1.0000000180025095e-35 0.077499240636825575 0.0036530273514466445 0.5134026373408721 141.20344543457034 -0.29620717465877527 0.41122749808493075 -0.14232945442199704 2.1640425613334453 0.015367436068128149 0.30605763196945196 0.32465781271457678 0.25477607651724166 2137.155883789063 0.54414263367652904 0.0034173570589094695 30.731518745422367 201.95913696289065 1.0000000180025095e-35 0.1891913637518883 0.19918151410924215 6.8196161983298095e-05 1.0000000180025095e-35 -0.4373744130134582 3102.696655273438 1220.0063476562502 2.1640425613334453 50.642778396606452 669.39111328125011
decision_type=2 2 2 2 2 2 2 2 2 2 2 2 2 2 2 2 2 2 2 2 2 2 2 2 2 2 2 2 2
left_child=1 2 22 6 5 -5 7 -4 15 10 21 -12 13 -11 -14 18 20 -18 19 -3 -17 -10 26 -24 -6 -25 27 -1 -28
right_child=-2 8 3 4 24 -7 -8 -9 9 12 11 -13 14 -15 -16 16 17 -19 -20 -21 -22 -23 23 25 -26 -27 28 -29 -30
leaf_value=-0.052600550577034604 0.070478030329089433 0.031648875088846111 0.055714116733311204 0.16967201293991802 -0.055350256939170908 0.024158015579866292 0.12911398389098275 -0.011497287234676492 -0.052422367540883044 0.057922072014704201 0.08456492136788217 -0.030420728438986713 0.053522935869156033 0.0018724676969257264 0.08296975911658093 0.059642005869476926 0.012433388791848247 0.052325851221530661 0.074848812599736345 0.065671554176003066 0.066739891833218074 -0.062902383188938954 -0.060226187518403043 -0.05478079640617859 -0.052469054839441934 -0.053927384591193943 -0.05070236738374434 -0.050788033905509823 -0.050964804686259517
leaf_weight=1.3134009372442954 649.99088335037231 47.490821711719036 168.53191262111068 8.0778647251427156 30.84324212744832 26.938954491168261 18.680361580103636 39.509944807738066 13.899928815662863 95.510957665741444 21.617711797356606 38.316698804497719 162.14831521734595 40.108227960765362 64.330774292349815 90.128650009632111 40.161379635334015 86.243962846696377 164.14538881182671 249.6096665263176 117.96359483897686 13.570772826671599 4.5732517242431632 5.3086461462080461 4.0097395591437808 3.2817952893674374 24.496074081398547 2.2267714543268085 29.280184482224286
leaf_count=34 86 201 897 48 400 161 88 386 440 117 29 187 223 122 16 59 67 95 59 166 48 117 35 72 96 54 1833 148 1730
internal_value=0.0533733 0.0464777 0.0212258 0.0386088 0.00148577 0.057726 0.0500491 0.0429498 0.0539214 0.0416096 -0.0105237 0.0110534 0.0541937 0.0413459 0.0618872 0.0608762 0.0545907 0.0396513 0.0654345 0.0602331 0.0636657 -0.0575996 -0.0519248 -0.0564598 -0.0550188 -0.0544548 -0.0508833 -0.0514605 -0.0508453
internal_weight=2262.31 1612.32 367.072 296.592 69.8698 35.0168 226.722 208.042 1245.25 449.503 87.4051 59.9344 362.098 135.619 226.479 795.743 334.498 126.405 461.246 297.1 208.092 27.4707 70.4801 13.1637 34.853 8.59044 57.3164 3.54017 53.7763
internal_count=8014 7928 5982 2076 705 209 1371 1283 1946 1251 773 216 478 239 239 695 269 162 426 367 107 557 3906 161 496 126 3745 182 3563
is_linear=0
shrinkage=0.05


Tree=23
num_leaves=24
num_cat=0
split_feature=7 0 4 4 0 4 4 4 1 4 4 0 2 0 0 2 0 2 2 0 2 4 0
split_gain=137.655 61.1369 33.2178 39.3217 53.4043 44.2747 49.4216 33.0566 22.7104 30.8142 20.1126 32.2202 10.5322 6.93281 24.7253 5.73025 2.68231 0.0375782 0.026158 0.0103145 0.00222918 0.000163246 4.53609e-05
threshold=1.0000000180025095e-35 0.28883154690265661 52776.912109375007 2578.442993164063 -0.5176434814929961 2098.106079101563 2053.465454101563 6587.0605468750009 2.1640425613334453 58.595060348510749 717.99084472656261 0.54414263367652904 0.00069331366122829616 0.35216529667377477 0.49820218980312353 1.0000000180025095e-35 0.52007582783699047 0.00021699592803472488 6.8196161983298095e-05 0.099414180964231505 0.00013291936053560542 79159700.000000015 0.077499240636825575
decision_type=2 2 2 2 2 2 2 2 2 2 2 2 2 2 2 2 2 2 2 2 2 2 2
left_child=1 2 3 5 18 6 -1 -6 12 -10 -11 -12 15 -14 -15 16 -3 -7 -5 20 22 -22 -4
right_child=-2 8 19 4 7 17 -8 -9 9 10 11 -13 13 14 -16 -17 -18 -19 -20 -21 21 -23 -24
leaf_value=0.027416127719823026 0.069667911967249169 0.051524728131777942 -0.050588490008238222 -0.050778701854785051 0.076139354992024386 -0.051486152755281712 0.14826651702081481 0.020849408279338882 -0.014200924782837741 0.061532577116424604 0.011007374199017572 0.055945465259733332 0.063608489942013333 0.021034321555210733 0.061000450054555913 0.076983018669551734 0.066897752515314823 -0.057467873739315861 -0.056777204602135693 -0.054938580831100474 -0.052592155449753465 -0.051975211159087223 -0.051012600540191459
leaf_weight=633.01352975517511 545.93278837203979 53.776334658265114 3.8590694488957507 2.3607112457975727 110.54952439758927 3.340203668922185 8.5743996798992139 35.784425489604473 23.838902108371258 110.19743015617132 78.785062715411186 80.791084945201874 77.071587100625038 63.46980094909668 99.156928330659866 81.823484882712364 60.07036018371582 12.271897632628677 7.8972808942198753 2.7204315681010476 1.8153964411467312 2.6192857157438993 0.75358386710286129
leaf_count=5308 74 85 351 169 375 174 27 235 76 84 258 71 40 89 46 15 21 134 90 52 43 75 42
internal_value=0.0480686 0.0404833 0.0311657 0.0323717 0.0548878 0.0270068 0.0290312 0.0626188 0.0510353 0.0402888 0.0451039 0.0337589 0.0582827 0.0512564 0.0454025 0.0668901 0.0596362 -0.0561881 -0.0553967 -0.052239 -0.0514273 -0.0522278 -0.0506578
internal_weight=2100.47 1554.54 825.56 813.792 156.592 657.2 641.588 146.334 728.981 293.612 269.774 159.576 435.368 239.698 162.627 195.67 113.847 15.6121 10.258 11.7678 9.04734 4.43468 4.61265
internal_count=7934 7860 7075 6512 869 5643 5335 610 785 489 413 329 296 175 135 121 106 308 259 563 511 118 393
is_linear=0
shrinkage=0.05


Tree=24
num_leaves=16
num_cat=0
split_feature=7 8 2 0 1 2 0 2 2 0 0 2 0 1 1
split_gain=134.952 93.4097 139.462 189.193 46.6536 33.8043 88.8245 54.7173 17.9361 17.8041 21.2326 8.06624 0.699208 0.240559 0.0217277
threshold=1.0000000180025095e-35 1.0000000180025095e-35 1.0000000180025095e-35 0.314296305179596 2.1640425613334453 0.056788373056243242 0.34401424229145056 0.12082467441317286 0.0032323893206205878 0.54414263367652904 0.369907096028328 0.58795948789579056 0.15614748746156695 2.1640425613334453 2.1640425613334453
decision_type=2 2 2 2 2 2 2 2 2 2 2 2 2 2 2
left_child=1 2 3 12 8 6 -6 -7 -4 10 -5 -10 14 -14 -1
right_child=-2 -3 4 9 5 7 -8 -9 11 -11 -12 -13 13 -15 -16
leaf_value=-0.0533175563781823 0.06855452292994689 0.068949062002633399 0.068199417517278788 0.051438865313820151 0.028895506574864661 0.068891033082112932 -0.076232084110333054 0.030398937419919114 0.051138941824615508 0.059946187723679462 -0.010600222440804871 0.02912668960751404 -0.06397309983987319 -0.053828183343133662 -0.050848339654299947
leaf_weight=10.532621019519864 609.29087257385254 248.470627784729 160.52895970642567 27.816966615617275 161.32480905950069 128.1460554972291 22.951292343437672 330.28934464417398 255.65582383051515 60.555333733558655 27.352997444570065 49.710407868027687 18.349527712911367 8.5736381765455025 57.799983502365649
leaf_count=312 85 34 74 65 867 332 126 1493 268 32 109 87 130 160 3847
internal_value=0.0485851 0.0408258 0.0355303 -0.00173001 0.0426214 0.0338884 0.015802 0.0411586 0.0546686 0.0412268 0.0206802 0.0475556 -0.0539179 -0.0607425 -0.0512289
internal_weight=2177.35 1568.06 1319.59 210.981 1108.61 642.712 184.276 458.435 465.895 115.725 55.17 305.366 95.2558 26.9232 68.3326
internal_count=8021 7936 7902 4655 3247 2818 993 1825 429 206 174 355 4449 290 4159
is_linear=0
shrinkage=0.05


Tree=25
num_leaves=16
num_cat=0
split_feature=8 7 0 4 4 4 0 0 0 0 4 4 4 4 0
split_gain=146.301 108.965 103.114 86.6436 68.8149 83.4995 61.0367 47.545 77.0154 21.466 14.1018 63.726 19.8693 1.65877 0.15782
threshold=1.0000000180025095e-35 1.0000000180025095e-35 0.17608883976936343 1320.7589111328127 543.59439086914074 179.91431427001956 -0.30013725161552424 -0.51337632536888111 -0.62123790383338917 0.58513519167900097 376.29901123046881 985.55404663085949 5.629091978073121 289.97795104980474 0.099414180964231505
decision_type=2 2 2 2 2 2 2 2 2 2 2 2 2 2 2
left_child=1 2 3 4 5 -1 -6 8 -5 10 12 -12 -4 -11 -9
right_child=-2 -3 9 7 6 -7 -8 14 -10 13 11 -13 -14 -15 -16
leaf_value=0.022351829527092221 0.066718527260212476 0.068409645489227441 0.013696638683532181 -0.056009978448010769 0.073504607852109008 -0.056382259108760852 0.0055722423926966675 -0.054334726069463268 0.069329532356755888 0.063381127613307831 -0.037273034158042055 0.039200767564744859 0.048770525725057121 0.05365400227380171 -0.060535207724570689
leaf_weight=169.32576850708574 612.51296901702881 241.76457452774048 46.083763301372528 23.053379032760859 99.948903387412429 42.033619067631662 49.412688751704991 46.787785936146975 26.166722974739969 83.647031098604202 31.592721618711948 197.79222896695137 326.18539041653275 92.071557208895683 13.14585648011416
leaf_count=2237 89 34 103 531 616 992 478 1470 208 22 125 492 349 79 163
internal_value=0.0461493 0.037688 0.031733 0.0132413 0.0250521 0.00669377 0.0510308 -0.0257901 0.0106239 0.0429101 0.0384199 0.0286682 0.0444287 0.0582844 -0.0556947
internal_weight=2101.52 1489.01 1247.25 469.875 360.721 211.359 149.362 109.154 49.2201 777.373 601.654 229.385 372.269 175.719 59.9336
internal_count=7988 7899 7865 6695 4323 3229 1094 2372 739 1170 1069 617 452 101 1633
is_linear=0
shrinkage=0.05


Tree=26
num_leaves=14
num_cat=0
split_feature=7 0 4 2 2 0 2 0 0 0 0 0 0
split_gain=98.679 34.5354 74.52 24.0205 53.5657 43.3828 15.2712 49.8118 44.7059 2.00601 0.594203 0.190091 0.00783498
threshold=1.0000000180025095e-35 0.62487870454788219 52776.912109375007 0.55425078626799851 0.686273779735879 -0.44259178638458246 0.23147679869283136 -0.092516887933015809 -0.79115536808967579 0.15965962409973147 0.52007582783699047 0.28883154690265661 0.099414180964231505
decision_type=2 2 2 2 2 2 2 2 2 2 2 2 2
left_child=1 2 3 6 9 -6 8 -8 -1 -5 11 12 -4
right_child=-2 -3 10 4 5 -7 7 -9 -10 -11 -12 -13 -14
leaf_value=-0.056799073016025686 0.065926350612098325 0.060283041446519164 -0.051344970662951239 -0.056850441883458835 -0.056636573443007543 0.03612269748476795 0.088569111178489812 0.032259384913798893 0.040604439584540075 -0.096826939892998509 -0.079623922996989879 -0.063376855302843649 -0.05478192272626136
leaf_weight=11.922494577243922 492.80308151245117 190.12098556756973 8.1289122775197082 6.2855819128453714 13.53818631544709 182.86833749338984 67.977314282208681 93.011882353574038 987.53376111853868 6.2667851150035858 3.2424773871898642 5.8060005009174338 2.0830981787294141
leaf_count=306 74 90 518 77 156 591 250 165 5652 27 16 42 42
internal_value=0.046394 0.0402971 0.0375609 0.0389345 0.023329 0.0297289 0.0417445 0.056036 0.0394425 -0.0768088 -0.0601044 -0.0561531 -0.0520461
internal_weight=2071.59 1578.79 1388.66 1369.4 208.959 196.407 1160.45 160.989 999.456 12.5524 19.2605 16.018 10.212
internal_count=8006 7932 7842 7224 851 747 6373 415 5958 104 618 602 560
is_linear=0
shrinkage=0.05


Tree=27
num_leaves=26
num_cat=0
split_feature=8 1 2 7 2 2 2 0 0 0 0 0 7 2 2 0 2 7 2 2 0 0 0 0 0
split_gain=193.803 130.696 114.141 78.5493 77.7229 129.884 49.9432 21.2971 43.7864 19.9179 45.4226 17.6415 32.6264 11.86 26.0742 22.5078 4.95209 5.6482 4.47066 0.053651 0.0324001 0.0190618 0.00147517 0.000696095 0.000578275
threshold=1.0000000180025095e-35 2.1640425613334453 1.0000000180025095e-35 1.0000000180025095e-35 0.297169655659062 0.71527729762342562 0.23147679869283136 0.1891913637518883 0.077499240636825575 0.314296305179596 0.33231168985366827 0.14416962862014773 1.0000000180025095e-35 0.00051951888930161234 0.088235854888061141 0.52007582783699047 1.0000000180025095e-35 1.0000000180025095e-35 0.016722508235341771 0.00045902828344445052 0.18286757916212085 0.014124292880296709 0.262901321053505 0.15294045209884646 0.029656033962965015
decision_type=2 2 2 2 2 2 2 2 2 2 2 2 2 2 2 2 2 2 2 2 2 2 2 2 2
left_child=1 7 9 4 6 -6 -4 8 19 20 -11 18 -13 16 15 -15 17 -9 -10 24 23 -21 -22 -3 -1
right_child=-2 2 3 -5 5 -7 -8 13 11 10 -12 12 -14 14 -16 -17 -18 -19 -20 21 22 -23 -24 -25 -26
leaf_value=-0.052164733748872719 0.064955167041997525 -0.050836989133551704 0.022081414529653884 0.068579380350080765 -0.052046457969381725 0.03601909108199388 0.072738443966939001 0.047574616809693819 0.071020884894271316 0.073933665578269164 -0.062377303081758387 -0.011497922490191319 0.067571669387137795 0.0010749220854965737 0.055593960061908143 0.050148421332842696 0.069493295961589777 0.064543961278301018 0.042004580590067786 -0.056511890874670567 -0.053794785398358053 -0.060862506423312958 -0.055242763146166086 -0.051793774425742761 -0.050805459469011931
leaf_weight=1.5148818716406816 583.51046228408813 54.841012169606984 380.89812263473868 85.65626335144043 90.769512901082635 77.714548794552684 55.78156865388155 120.20804552733898 31.760824494063854 11.538053408265116 12.994551084935663 34.044660314917564 21.152186870574951 52.829414010047913 167.72735996544361 41.895405098795891 75.528932303190231 82.822389125823975 22.807336196303368 4.5070727877318841 3.8606713730841866 5.7039858419448137 3.2310883048921824 1.969251250848173 1.6183629734441636
leaf_count=63 90 3745 1638 12 789 305 111 162 117 16 96 141 3 97 92 24 17 13 35 50 65 65 46 64 122
internal_value=0.0406387 0.0308083 0.0169185 0.0237652 0.0174221 -0.0114256 0.0285524 0.0471061 0.0283361 -0.0365653 0.0017318 0.0387331 0.0188026 0.0513773 0.0437505 0.0227794 0.0585631 0.0544969 0.0588932 -0.057186 -0.0512679 -0.0589422 -0.0544545 -0.0508702 -0.0514627
internal_weight=2026.89 1443.38 779.255 690.82 605.164 168.484 436.68 664.121 123.109 88.4346 24.5326 109.765 55.1968 541.012 262.452 94.7248 278.559 203.03 54.5682 13.3443 63.902 10.2111 7.09176 56.8103 3.13324
internal_count=7978 7888 6887 2855 2843 1094 1749 1001 596 4032 112 296 144 405 213 121 192 175 152 300 3920 115 111 3809 185
is_linear=0
shrinkage=0.05


Tree=28
num_leaves=16
num_cat=0
split_feature=8 7 0 2 2 2 2 0 0 2 1 2 0 1 0
split_gain=133.009 97.1548 93.3101 145.956 61.8048 126.023 30.4515 24.7144 24.9178 39.1676 18.189 1.89217 0.23848 0.0227067 0.00940275
threshold=1.0000000180025095e-35 1.0000000180025095e-35 0.1891913637518883 1.0000000180025095e-35 0.44041172272625151 0.41122749808493075 0.78322135871190446 0.54414263367652904 0.369907096028328 0.00013291936053560542 2.1640425613334453 0.068610944033538665 0.15614748746156695 2.1640425613334453 0.17168974876403811
decision_type=2 2 2 2 2 2 2 2 2 2 2 2 2 2 2
left_child=1 2 3 12 5 -5 -6 8 10 -10 -4 -9 13 -1 -14
right_child=-2 -3 7 4 6 -7 -8 11 9 -11 -12 -13 14 -15 -16
leaf_value=-0.053390427090305372 0.064077786756902483 0.065559109246925693 0.052757925693889519 0.027154611430408065 -0.033369600776411677 0.17566781997417236 0.024910019157828766 0.049841993969048398 -0.035827351284139011 0.028970943746605152 0.029420172147129626 0.058936892060408835 -0.058017097180901145 -0.050800443204839708 -0.061043811845938684
leaf_weight=10.047419819980858 507.50875186920166 214.85641288757324 190.02868721261621 319.51182669587433 60.335936723276973 14.952872753143309 35.661452513188124 135.53764188289642 26.935720823705196 173.75950476527214 148.91528912447393 98.929452374577522 5.6489007566124183 53.648042624350637 4.7016687542200089
leaf_count=306 81 33 183 1634 619 31 241 91 110 251 407 51 73 3831 48
internal_value=0.0419639 0.0344492 0.0292215 0.0124901 0.0236441 0.0337942 -0.0117197 0.0401258 0.0342369 0.0202742 0.0425045 0.0536794 -0.0523529 -0.051209 -0.059392
internal_weight=2000.98 1493.47 1278.61 504.508 430.462 334.465 95.9974 774.106 539.639 200.695 338.944 234.467 74.046 63.6955 10.3506
internal_count=7990 7909 7876 6783 2525 1665 860 1093 951 361 590 142 4258 4137 121
is_linear=0
shrinkage=0.05


Tree=29
num_leaves=15
num_cat=0
split_feature=8 7 1 2 0 0 2 0 0 0 2 0 2 0
split_gain=144.6 107.426 74.5027 102.193 41.2144 69.2129 36.8434 17.6791 46.753 14.6293 16.6082 49.7464 20.3641 0.0310786
threshold=1.0000000180025095e-35 1.0000000180025095e-35 2.1640425613334453 1.0000000180025095e-35 -0.4373744130134582 -0.18251188099384305 0.013405437587744361 0.314296305179596 0.33231168985366827 0.62487870454788219 6.8196161983298095e-05 0.1891913637518883 0.0022343233574270774 0.18286757916212085
decision_type=2 2 2 2 2 2 2 2 2 2 2 2 2 2
left_child=1 2 9 7 6 -6 -5 13 -9 10 11 -1 -12 -4
right_child=-2 -3 3 4 5 -7 -8 8 -10 -11 12 -13 -14 -15
leaf_value=-0.0564111496503421 0.063110018446739052 0.064401772310563404 -0.050780625000402126 0.082949393212278233 -0.030519383648504175 0.023378858835244789 0.02920035843481484 0.075083458318532359 -0.063421593114032004 0.059355876149259496 0.05981003165098045 0.035363941236492814 0.03384127294322585 -0.054306805052804608
leaf_weight=18.015955357812345 505.25808238983154 218.5456805229187 51.64407023973763 45.479380242526531 70.048392701894045 397.92114786617458 106.64673889055848 11.133459240198137 13.457442745566366 85.528764322400093 109.49129287526011 81.843392368406057 243.11959576793015 7.1088779661804429
leaf_count=377 84 35 3825 73 821 1373 517 13 99 26 60 147 354 115
internal_value=0.0400551 0.0320764 0.0263858 0.0156738 0.0226606 0.0153111 0.0452691 -0.036309 -0.000713835 0.0403919 0.0368072 0.0188065 0.041905 -0.0512073
internal_weight=1965.24 1459.98 1241.44 703.44 620.096 467.97 152.126 83.3439 24.5909 537.999 452.47 99.8593 352.611 58.7529
internal_count=7919 7835 7800 6836 2784 2194 590 4052 112 964 938 524 414 3940
is_linear=0
shrinkage=0.05


Tree=30
num_leaves=21
num_cat=0
split_feature=8 0 2 2 2 0 2 2 7 0 0 2 2 2 2 2 2 0 0 0
split_gain=168.824 154.507 78.6259 79.0409 57.791 65.7199 54.2315 95.9824 34.8674 34.9396 41.6321 38.8596 28.0051 117.549 25.0706 3.69632 1.76508 0.0582625 0.0740884 0.0497696
threshold=1.0000000180025095e-35 0.1274596303701401 0.056788373056243242 0.11547798604320759 0.10188028503344837 -0.33398286998271937 0.23147679869283136 0.42120517173631811 1.0000000180025095e-35 0.54414263367652904 0.47035907208919531 1.0000000180025095e-35 0.0068579753241118932 0.0065640441046578698 1.0000000180025095e-35 0.032144747888130105 0.0034173570589094695 0.052560510113835342 -0.4373744130134582 -0.045946773141622536
decision_type=2 2 2 2 2 2 2 2 2 2 2 2 2 2 2 2 2 2 2 2
left_child=1 2 12 4 5 -4 19 -8 9 10 11 -3 13 14 -1 -12 -11 18 -14 -5
right_child=-2 8 3 6 -6 -7 7 -9 -10 16 15 -13 17 -15 -16 -17 -18 -19 -20 -21
leaf_value=-0.050917855295159055 0.062341428445889226 0.0027756220497213223 0.073029980279090995 -0.058724294252922173 0.14296899880608613 -0.057356920812542171 0.068289854600080968 -0.016873919154846189 0.062680044033080862 0.056046154898349111 -0.0046621362310774314 0.038253064519288976 -0.060712305182155257 0.17760511894727726 0.0013595631592100445 -0.033391699014752724 0.047229469047918533 -0.06388919727388831 -0.056431981368144701 -0.063873062215282106
leaf_weight=51.068211201578379 510.60660314559937 90.547765668481588 35.667145304381847 23.931352484971288 17.774729646742344 13.25609205290675 52.360043216496706 89.869220715016127 134.38828134536743 128.18982422351837 29.726061284542084 523.01997727528214 16.916361913084984 7.559660203754901 41.628406807780266 17.959921315312386 101.88499069213867 4.9501148983836165 25.125126829370856 5.8385929577052584
leaf_count=3882 88 622 96 224 46 140 223 824 23 58 77 717 140 8 257 46 78 47 299 51
internal_value=0.0377036 0.028792 0.00182515 0.0195503 0.0657543 0.0377007 0.00163334 0.0144781 0.0389387 0.0353592 0.0295199 0.0330175 -0.0269084 -0.0119798 -0.027441 -0.0154825 0.0521418 -0.0587584 -0.0581543 -0.0597341
internal_weight=1922.27 1411.66 385.945 238.697 66.698 48.9232 171.999 142.229 1025.72 891.329 661.254 613.568 147.248 100.256 92.6966 47.686 230.075 46.9916 42.0415 29.7699
internal_count=7946 7858 6237 1604 282 236 1322 1047 1621 1598 1462 1339 4633 4147 4139 123 136 486 439 275
is_linear=0
shrinkage=0.05


Tree=31
num_leaves=15
num_cat=0
split_feature=7 0 4 2 0 2 2 2 2 4 0 0 0 2
split_gain=114.98 39.0392 55.7043 20.4103 67.3894 34.8238 34.075 27.4757 21.2821 1.4305 0.356068 0.0159628 0.0144955 0.00218784
threshold=1.0000000180025095e-35 0.58513519167900097 52776.912109375007 0.55425078626799851 -0.15958026051521298 0.41122749808493075 0.45011645181974086 1.2162456614158885 0.297169655659062 521.11553955078136 0.314296305179596 -0.4373744130134582 0.099414180964231505 0.00013291936053560542
decision_type=2 2 2 2 2 2 2 2 2 2 2 2 2 2
left_child=1 2 3 5 11 8 -7 -6 -1 -3 12 -5 13 -4
right_child=-2 9 10 4 7 6 -8 -9 -10 -11 -12 -13 -14 -15
leaf_value=0.031742572874303106 0.06154294615954814 0.056496651663066805 -0.05045182412273707 -0.055974843836305271 0.016657794403162788 0.11113500411337561 0.038823306984382161 0.063949819256214874 -0.0094416194052546736 0.048163948896697992 -0.066819695948657512 -0.053632950037194663 -0.055611368420900031 -0.052215637868060882
leaf_weight=995.84112252900377 419.26528596878052 100.28167264163494 3.307335401419552 13.633477739989759 137.69583001732826 26.897133219987154 41.316706340759993 39.529048059135675 32.388699274510145 105.8945037573576 7.9279733076691619 15.60490810126066 2.8551925839856267 3.7533509042114019
leaf_count=6053 76 35 417 168 368 42 96 43 144 77 54 273 50 106
internal_value=0.0383502 0.0319819 0.0288231 0.0300248 0.0156033 0.0327404 0.0673363 0.027206 0.0304453 0.0522169 -0.0589206 -0.0547249 -0.0526051 -0.0513894
internal_weight=1946.19 1526.93 1320.75 1302.91 206.463 1096.44 68.2138 177.225 1028.23 206.176 17.8439 29.2384 9.91588 7.06069
internal_count=8002 7926 7814 7187 852 6335 138 411 6197 112 627 441 573 523
is_linear=0
shrinkage=0.05


Tree=32
num_leaves=12
num_cat=0
split_feature=8 7 0 0 4 4 0 0 0 4 0
split_gain=170.003 123.404 112.44 36.3949 33.7234 33.5309 39.0986 13.3188 18.5538 4.10314 0.171288
threshold=1.0000000180025095e-35 1.0000000180025095e-35 0.28883154690265661 0.262901321053505 32696.755859375004 6587.0605468750009 0.014124292880296709 0.54414263367652904 0.29738599061965948 527929.54687500012 0.099414180964231505
decision_type=2 2 2 2 2 2 2 2 2 2 2
left_child=1 2 3 5 7 6 -1 8 -4 -6 -7
right_child=-2 -3 4 -5 9 10 -8 -9 -10 -11 -12
leaf_value=-0.0035199581981416291 0.06108216743151075 0.062383960519475382 0.067027374925006641 -0.082094417142693166 -0.021894219278016786 -0.05188066242285741 0.023017341928482357 0.050313705905888108 0.029620548794951358 0.010614205799855793 -0.060958852933274979
leaf_weight=316.97075157007203 439.40222549438477 193.62925720214844 36.566499449312687 12.019480794668196 24.688123468309641 10.115421792026611 246.92756124027073 158.07531799376011 354.69369447603822 15.995400726795195 10.684142230078576
leaf_count=5140 81 34 26 81 100 658 1092 80 531 32 129
internal_value=0.0339955 0.0253731 0.0193344 0.0040305 0.0348121 0.00580095 0.00810056 0.0380651 0.0331165 -0.00911299 -0.0565439
internal_weight=1819.77 1380.37 1186.74 596.717 590.019 584.698 563.898 549.336 391.26 40.6835 20.7996
internal_count=7984 7903 7869 7100 769 7019 6232 637 557 132 787
is_linear=0
shrinkage=0.05


Tree=33
num_leaves=17
num_cat=0
split_feature=8 7 1 2 0 0 2 0 2 0 2 2 0 0 2 0
split_gain=127.153 81.5292 49.6868 102.796 21.5529 72.706 19.1281 48.679 40.1915 16.167 51.977 33.1656 8.35685 11.12 0.510832 0.160753
threshold=1.0000000180025095e-35 1.0000000180025095e-35 2.1640425613334453 0.0036530273514466445 0.32465781271457678 0.30605763196945196 0.5134026373408721 0.15965962409973147 0.40330086139656618 0.1891913637518883 0.00060912303982445573 0.029533630713166021 0.71934479475021373 0.35216529667377477 0.00021699592803472488 0.16382293403148654
decision_type=2 2 2 2 2 2 2 2 2 2 2 2 2 2 2 2
left_child=1 2 9 4 5 -4 8 -8 -5 10 15 -12 13 -11 -6 -1
right_child=-2 -3 3 6 14 -7 7 -9 -10 12 11 -13 -14 -15 -16 -17
leaf_value=-0.054363627145522779 0.060424440966653725 0.061690916515900557 -0.035113964432321419 0.025712051661499338 -0.063204242118566664 0.068284085628132943 -0.025658783687768024 0.032309093845401128 0.075664651322692955 0.048624600449741512 0.065457080782179919 0.0047737105182306689 0.059198200319337195 0.030815629468285213 -0.079064831700659005 -0.0643178846075632
leaf_weight=11.722756091505291 437.52342987060547 174.90646457672119 85.084188566543162 430.63073546439409 13.628285743296148 21.246976375579834 58.7715651281178 94.369063630700111 44.421606380492449 158.74395834282041 45.494934640824795 44.577942645177245 58.437740981578827 195.72637289762497 8.0904566720128042 6.2014404125511637
leaf_count=332 84 32 4216 1644 102 23 734 129 109 153 48 154 16 213 45 49
internal_value=0.0367956 0.029676 0.0252915 0.0171065 -0.0237239 -0.0144531 0.0254293 0.0100625 0.0303831 0.0371744 0.0199507 0.0354243 0.0416793 0.0387911 -0.0691125 -0.0578076
internal_weight=1889.58 1452.05 1277.15 756.243 128.05 106.331 628.193 153.141 475.052 520.905 107.997 90.0729 412.908 354.47 21.7187 17.9242
internal_count=8083 7999 7967 7002 4386 4239 2616 863 1753 965 583 202 382 366 147 381
is_linear=0
shrinkage=0.05


Tree=34
num_leaves=22
num_cat=0
split_feature=8 1 2 2 2 0 2 4 4 4 4 0 0 0 0 2 2 2 0 2 0
split_gain=178.142 109.247 175.853 52.3256 72.0005 57.301 32.3571 31.9738 39.7189 15.9529 53.8599 60.9771 14.8981 11.3696 10.5633 9.65555 7.9205 32.3765 2.25161 0.928116 0.139111
threshold=1.0000000180025095e-35 2.1640425613334453 0.0052081748605373361 0.0068579753241118932 0.056788373056243242 0.21593062579631808 0.057843569184365264 20387.666992187504 26094.627929687504 511.19529724121099 4776.3586425781259 0.54414263367652904 0.32465781271457678 0.27092568576335913 0.52007582783699047 0.00030337648530540166 0.19918151410924215 0.014676934567709706 0.52007582783699047 0.00021699592803472488 0.54414263367652904
decision_type=2 2 2 2 2 2 2 2 2 2 2 2 2 2 2 2 2 2 2 2 2
left_child=1 9 7 -4 5 -5 -6 18 -9 14 11 15 13 -12 16 -11 17 -1 19 -3 -10
right_child=-2 2 3 4 6 -7 -8 8 20 10 12 -13 -14 -15 -16 -17 -18 -19 -20 -21 -22
leaf_value=0.040387435811422095 0.059762365442861676 -0.052788222935203924 0.081033596840984934 -0.060732794455618536 0.088440676116729844 0.016976697189982921 0.02192985855141262 0.082612506986341622 -0.055214116152273229 -0.035670510014133697 -0.053997108614071691 0.040620443017222084 0.068367645928271881 0.049795231048927455 0.054580971025102953 -0.093335850168136475 0.047863320585116956 -0.0087856757532319522 -0.096018269085997837 -0.063157133536019303 -0.068068491801696565
leaf_weight=207.71659678779542 419.24387264251709 62.815427776891738 33.388789013028145 48.980509545654058 19.055109620094299 46.001584429293871 453.19748047366738 9.8909125812351721 6.8202293398790044 14.794505327939989 4.8418135391548258 26.791637808084488 44.889456152915955 5.7980509996414185 122.3821566849947 14.252304546535013 125.95732421427965 39.905563041567802 3.7162777855992308 32.876434382051229 3.0442047417163849
leaf_count=346 84 3779 52 480 10 104 1818 15 344 79 242 21 12 4 42 68 92 95 16 280 16
internal_value=0.03135 0.0223744 0.00919695 0.0202051 0.0166246 -0.0230967 0.0246135 -0.0462877 0.0118108 0.0379919 0.0208909 -0.0137842 0.055759 0.00256313 0.0418319 -0.063965 0.0376554 0.0324629 -0.0578336 -0.0563506 -0.059181
internal_weight=1746.36 1327.12 719.787 600.623 567.235 94.9821 472.253 119.163 19.7553 607.329 111.368 55.8384 55.5293 10.6399 495.962 29.0468 373.579 247.622 99.4081 95.6919 9.86443
internal_count=7999 7915 6914 2464 2412 584 1828 4450 375 1001 426 168 258 246 575 147 533 441 4075 4059 360
is_linear=0
shrinkage=0.05


Tree=35
num_leaves=17
num_cat=0
split_feature=8 7 0 2 4 2 4 2 4 4 4 4 0 0 2 0
split_gain=121.788 83.5962 76.8738 88.767 84.1213 44.4977 87.3816 45.2989 23.5009 30.2401 30.9413 11.6339 23.9348 7.41345 5.56582 0.873466
threshold=1.0000000180025095e-35 1.0000000180025095e-35 0.28883154690265661 1.0000000180025095e-35 0.77256894111633312 0.297169655659062 703.51806640625011 0.23147679869283136 1461.9257812500002 5915.3037109375009 40381.740234375007 19.619320869445804 0.35216529667377477 0.35216529667377477 0.04580083237108299 0.17608883976936343
decision_type=2 2 2 2 2 2 2 2 2 2 2 2 2 2 2 2
left_child=1 2 3 4 -1 7 -7 -5 11 13 -11 12 -4 -10 -13 -6
right_child=-2 -3 8 5 15 6 -8 -9 9 10 -12 14 -14 -15 -16 -17
leaf_value=0.10009491031813622 0.059204798320308262 0.060558264694096413 0.053936039158068341 0.020368399093287391 -0.051672541847394608 0.020081322156699562 -0.061030411852795355 0.065158342092450791 0.0049430807511239641 0.048131033511165627 -0.006132752254155144 0.040605256554629467 0.0048720631007062604 -0.039515124332168854 0.052915650788210061 -0.064722465224801323
leaf_weight=9.9768398571759445 416.7331428527832 178.77261924743652 45.143177419900894 322.57393468171358 57.286953276954591 117.51852561533451 46.280425444245338 68.424699202179909 17.261456917971373 87.471071731299162 37.545958232134581 205.75989846512675 55.313227094709873 20.528302483260632 165.80634512007236 16.520070138387382
leaf_count=28 87 35 34 1537 4185 577 517 114 47 108 120 194 102 67 97 162
internal_value=0.0353783 0.0285409 0.024046 0.0117971 -0.0361734 0.0190415 -0.00283632 0.0282066 0.0363672 0.0199866 0.0318342 0.0420171 0.0269205 -0.0192077 0.0460986 -0.0545935
internal_weight=1868.92 1452.18 1273.41 638.581 83.7839 554.798 163.799 390.999 634.829 162.807 125.017 472.023 100.456 37.7898 371.566 73.807
internal_count=8011 7924 7889 7120 4375 2745 1094 1651 769 342 228 427 136 114 291 4347
is_linear=0
shrinkage=0.05


Tree=36
num_leaves=25
num_cat=0
split_feature=8 1 2 4 4 0 4 4 2 4 2 4 4 0 0 0 0 0 2 2 0 0 0 0
split_gain=181.463 70.1995 179.842 47.7875 47.4861 41.9244 39.1444 27.967 71.6967 24.704 101.453 10.8287 5.94963 10.5018 4.35203 1.46087 1.42907 0.970132 0.48994 0.31496 0.0563314 0.050925 0.0146305 0.0107439
threshold=1.0000000180025095e-35 2.1640425613334453 0.0024768918732543661 5.629091978073121 7263.0754394531259 0.47035907208919531 5915.3037109375009 2.5526006221771245 0.70710678118654624 408.88476562500006 0.00037771874233415989 6587.0605468750009 6.4670848846435556 0.41379188001155859 0.35216529667377477 0.27092568576335913 0.30605763196945196 0.28883154690265661 1.0000000180025095e-35 0.00021699592803472488 -0.081538949161767946 0.10357502847909929 0.40479220449924475 0.16735233366489413
decision_type=2 2 2 2 2 2 2 2 2 2 2 2 2 2 2 2 2 2 2 2 2 2 2 2
left_child=1 7 16 15 6 -6 -5 8 17 12 11 -11 -9 -14 -12 20 19 -1 22 23 -4 -21 -18 -3
right_child=-2 2 3 4 5 -7 -8 9 -10 10 14 -13 13 -15 -16 -17 18 -19 -20 21 -22 -23 -24 -25
leaf_value=-0.079324949975757036 0.05868654351009818 -0.050744319462848714 -0.054203561751739529 0.022884443030732476 -0.068373100164519349 0.013648848236562011 0.073510041961606265 0.057186733514244505 0.060149406494487037 0.019427790271879367 -0.068691179317330583 0.056013550204957276 0.032903814270994987 0.050090049472061943 -0.11769907561727118 -0.090153157814024443 -0.061196964395615498 -0.10495535286587497 -0.078369063503402378 -0.057323277561816446 -0.062329390627757469 -0.063572005502090634 -0.06434156930627298 -0.052977645849286631
leaf_weight=7.9530035723000783 423.26194286346436 42.777255349326879 5.2913079243153325 530.39688637293875 25.593712883070111 39.815585978329182 41.144906163215637 58.554914185777307 16.53739171475172 38.596149899065495 9.4554278980940598 42.49178387131542 214.60522006824613 151.73473930358887 8.6963747292757017 5.5707758814096442 8.635525584220888 6.8909261226654053 7.2326067835092536 10.781249409541486 3.5730585977435103 4.6740993112325659 6.4702347517013541 6.160729954019188
leaf_count=73 92 3828 86 2161 228 72 28 59 7 93 96 194 314 80 37 23 66 29 40 124 36 41 52 133
internal_value=0.0302685 0.0209705 0.0108659 0.0198717 0.0219105 -0.0184452 0.0265289 0.0343965 -0.0114526 0.0371416 0.0146805 0.0385995 0.0423876 0.0400222 -0.0921704 -0.0700885 -0.0567708 -0.0912232 -0.0676677 -0.0529906 -0.0574789 -0.0592131 -0.0625439 -0.0510255
internal_weight=1716.9 1293.63 738.118 651.386 636.951 65.4093 571.542 555.516 31.3813 524.135 99.2397 81.0879 424.895 366.34 18.1518 14.4351 86.7317 14.8439 22.3384 64.3933 8.86437 15.4553 15.1058 48.938
internal_count=7992 7900 6918 2634 2489 300 2189 982 109 873 420 287 453 394 133 145 4284 102 158 4126 122 165 118 3961
is_linear=0
shrinkage=0.05


Tree=37
num_leaves=12
num_cat=0
split_feature=8 7 2 2 4 4 4 4 4 2 1
split_gain=148.534 94.8419 56.2839 45.196 38.9882 34.2002 47.5537 32.7144 36.7098 29.1535 28.4251
threshold=1.0000000180025095e-35 1.0000000180025095e-35 1.0000000180025095e-35 0.00021699592803472488 0.77256894111633312 14107.218750000002 26094.627929687504 7263.0754394531259 5915.3037109375009 0.071241925406317838 2.1640425613334453
decision_type=2 2 2 2 2 2 2 2 2 2 2
left_child=1 2 4 -4 -1 10 -7 8 -5 -9 -6
right_child=-2 -3 3 7 5 6 -8 9 -10 -11 -12
leaf_value=0.083482141563910595 0.058125063053307183 0.059437402732227029 0.072692067175548103 0.021446288434759306 -0.0058682791676115736 0.080199118746087539 -0.062032970370536705 -0.063845341321237176 0.071259729057426488 0.0072358144380843502 -0.052835554351637087
leaf_weight=11.002557677216826 404.2410364151001 161.68260288238525 44.030381318181753 839.1521724537015 82.983325198292732 19.276544155552987 8.4538805237971228 19.080508720129728 38.690602585673332 59.123667817562819 52.655758290085942
leaf_count=34 92 34 36 2803 332 45 493 185 31 216 3707
internal_value=0.0315688 0.0235344 0.0185917 0.0231623 -0.00762167 -0.0137573 0.0368383 0.0208812 0.0236418 -0.0101068 -0.0241012
internal_weight=1740.37 1336.13 1174.45 1000.08 174.372 163.37 27.7304 956.047 877.843 78.2042 135.639
internal_count=8008 7916 7882 3271 4611 4577 538 3235 2834 401 4039
is_linear=0
shrinkage=0.05


Tree=38
num_leaves=22
num_cat=0
split_feature=8 0 2 2 2 2 1 2 2 2 2 2 0 0 0 4 1 2 1 4 0
split_gain=134.605 64.2885 60.6121 28.2815 37.1709 37.4264 20.1994 46.4835 49.2789 36.6055 15.9485 19.9643 15.4538 9.84079 7.20204 7.66325 6.85645 0.0855824 0.0213412 0.00620757 6.30316e-05
threshold=1.0000000180025095e-35 0.15965962409973147 1.0000000180025095e-35 0.0016914762599303272 0.0052081748605373361 0.0068579753241118932 2.1640425613334453 0.02345830523251384 0.0055727380598764396 0.0014631852004671089 0.046891626559074633 0.20322755328920211 0.15614748746156695 0.62487870454788219 0.47035907208919531 6.4670848846435556 2.1640425613334453 0.0036530273514466445 2.1640425613334453 50.642778396606452 0.099414180964231505
decision_type=2 2 2 2 2 2 2 2 2 2 2 2 2 2 2 2 2 2 2 2 2
left_child=1 2 12 16 17 -6 13 8 9 -8 -9 -12 18 14 15 -3 -4 -5 19 -1 -20
right_child=-2 6 3 4 5 -7 7 10 -10 -11 11 -13 -14 -15 -16 -17 -18 -19 20 -21 -22
